-0.0356249
0.00454181
-0.0219068
0.0220529
0.00607209
-0.00143764
-0.0106935
0.028283
0.02306
0.0176146
-0.023278
0.0256388
0.0150358
0.000966783
-0.0140004
-0.034644
-0.0291855
-0.009682
-0.0251919
-0.0238644
0.0348946
-0.00387912
-0.0272083
-0.0353808
-0.0350778
-0.00872284
0.00226164
0.0050846
0.00726885
0.0076547
-0.0238404
0.0116461
-0.00351508
-0.0105627
-0.0316401
0.00769175
0.020237
0.0216147
0.0014202
-0.0141458
0.0268571
0.0161971
0.0325761
0.0308576
0.00342131
-0.0255473
-0.00270913
-0.0189062
0.0258803
-0.020743
0.0199755
0.0245467
0.0354854
0.0356925
0.00796424
-0.00768303
-0.0166991
-0.0144799
0.024296
-0.0340183
-0.00886672
-0.0290983
0.0126817
-0.0317026
-0.0350983
0.029978
-0.0158317
-0.0159939
0.00634962
0.014159
0.0250483
0.0177817
-9.62092e-05
-0.0203613
0.017995
-0.00212805
-0.00300446
0.0320541
0.0174501
-0.0279662
0.00708237
-0.00819749
0.0167863
0.00778331
0.0051718
-0.00990435
-0.0248889
-0.0196354
-0.00534633
0.0216336
0.00121419
0.0349624
0.0179622
-0.0105794
-0.0238179
0.0109331
-0.000937513
-0.0318718
0.0132143
0.00376114
-0.0199036
0.0359234
-0.0235124
0.0288763
0.012377
-0.0144152
-0.00515939
-0.0306556
0.0333276
0.0130852
-0.024769
0.0269468
0.0229772
0.00586064
-0.0220463
-0.0230077
0.0226346
-0.00186258
-0.0247467
0.000708546
0.0172087
-0.00487847
-0.0152154
0.00142457
0.00630213
0.00816961
0.00582305
-0.00762098
-0.033089
-0.0168845
0.01393
-0.0429639
-0.00515925
0.00920313
-0.00470038
-0.0272423
0.0331466
0.0306568
0.00353906
-0.0110008
-0.00201967
-0.00892993
0.0247843
-0.0131524
-0.00329479
-0.0165294
0.0353193
-0.0134618
0.0190765
0.00804518
-0.0189102
0.0196914
0.0217565
-0.0164909
-0.0174395
0.0166042
-0.0443954
0.0224495
-0.00568629
-0.0348274
-0.00199629
-0.0207398
0.0304586
0.0173527
0.0147395
-0.0212647
0.0242072
-0.0269051
-0.0278623
0.0173661
-0.013281
0.0313131
-0.0154657
-0.0110273
-0.0240197
0.0187401
0.0274263
0.0225311
0.0210258
0.0362051
0.000268608
-0.0154131
-0.0342361
-0.030729
0.0201155
0.0233153
-0.0194562
-0.0199851
0.0139028
-0.0230422
-0.0148087
0.00821203
0.0224508
0.014093
0.00323143
-0.0304365
-0.00452001
-0.0212925
0.0140052
-0.0151763
-0.00495629
-0.0184523
0.00797861
0.00674965
0.0163922
-0.00837925
0.0314182
0.0726633
0.0489551
0.0556848
-0.00446523
0.000126621
-0.015693
0.043115
0.00610674
0.0510598
-0.00976355
0.0282261
-0.00915062
0.00889321
0.03689
-0.0295218
0.0291363
-0.0149989
-0.0194784
0.0192115
-0.00640729
-0.0214964
0.00864365
0.00776173
0.000184476
0.0031292
0.0177226
0.0371864
0.0720471
0.0785089
0.0593545
0.0414116
0.000276098
-0.0211539
-0.0289971
0.0226996
0.0193811
0.0548281
0.0103674
0.00705978
0.0297643
0.0292115
0.0152899
-0.00805102
0.001163
-0.0299762
0.0171944
0.00797985
0.00855685
0.0135194
0.0220323
-0.0235246
0.00945965
0.0345213
0.0493969
0.0460193
0.0720647
0.0261182
0.0543379
0.0366622
-0.0466602
-0.0365233
-0.041446
-0.0210199
-0.00858545
0.0568585
0.0594022
0.0471407
-0.00184184
0.00091248
-0.023424
-0.0278869
0.0106371
0.0228625
0.00321678
-0.00371835
-0.00657035
-0.0142609
-0.00213923
0.00162751
-0.0203747
0.000689313
0.0452734
0.0314593
0.0808945
0.0869264
0.056073
-0.000779157
-0.0739664
-0.0385248
-0.0612415
-0.0249652
0.0447494
0.0377291
0.0431954
0.0618238
-0.0124642
0.033659
0.0123767
-0.0123804
-0.0282237
0.000371467
-0.0194948
-0.0149869
0.0299692
0.00376648
0.0118258
-0.0260506
0.00630097
0.0087049
0.0344903
0.0700182
0.0562888
0.0402704
0.0359114
-0.0316135
-0.0708115
-0.08152
-0.0619345
0.0286998
0.00667788
0.0496095
0.0613039
0.0221316
0.030133
0.00484774
-0.0064439
0.0209206
0.00376955
-0.0102139
0.0325513
0.00934475
-0.0230831
-0.00902179
-0.0262429
0.0195681
0.0418969
0.0312499
0.00514446
0.0369106
0.0191588
0.0544804
-0.00489171
-0.0132058
-0.0581341
-0.0600102
0.00878923
0.0603197
0.0103263
0.0142326
0.0468392
0.0274953
-0.00889139
-0.0251321
-0.0220232
0.0094734
-0.0113698
-0.0129071
-0.00947088
0.0115
0.0215993
0.0219311
0.00177496
0.0101325
0.0329131
0.0576457
0.0150287
0.0534338
0.0414699
0.0267537
-0.00243068
-0.0117808
-0.106451
-0.0542342
0.0180855
0.0345398
0.0450317
0.0161012
0.0122802
-0.0121813
0.0321094
-0.0206263
-0.01347
0.0212343
0.0282226
0.0206862
0.0174141
0.00823019
-0.00992092
0.0254025
-0.0193267
0.0295582
-0.00490734
0.0125233
0.0473194
0.0806765
0.017845
0.0155686
0.0260741
-0.0507831
-0.0953244
-0.0510277
0.0627199
0.0312776
0.0143302
0.00579782
0.0518379
-0.0160323
-0.0219885
-0.0245519
-0.00949056
0.0300538
-0.00722299
-0.00480122
0.031869
0.0240846
0.00244447
0.0243568
0.0149984
-0.00101238
-0.00156709
-0.00732505
0.0427736
0.0769303
0.0361628
0.0208035
0.0149704
-0.0688099
-0.0490862
0.0142191
0.0431223
0.0803913
0.00497274
0.0595918
0.0238783
0.0342797
0.0158313
-0.0198652
-0.0178826
-0.00822185
-0.0353823
-0.00586226
-0.0298395
0.0114237
0.0253642
-0.0310953
0.0244409
0.0201038
0.0303064
0.0460719
0.0358893
0.0514398
0.0142692
0.0357519
0.00530911
-0.039524
-0.087978
0.0287085
0.055021
0.0694416
0.0123094
0.0293206
0.0482227
-0.019248
-0.00729849
-0.0191154
0.0360477
0.00884832
-0.014838
0.0301795
-0.00946183
0.0138957
-0.020128
-0.0247421
-0.015523
0.0124372
0.04807
-0.00409277
0.0576058
0.0264152
-0.00267257
0.0236133
-0.053428
-0.0317069
-0.0317929
0.0318469
0.0186402
0.0518674
0.00447951
0.0419722
-0.0113613
0.00368865
-0.00411718
0.0418926
-0.0303048
-0.017456
-0.0221861
-0.0180218
-0.0247494
0.00859423
0.0274225
0.0312176
-0.0169543
0.0315301
0.0285406
0.0351963
0.0551797
0.0225761
0.0411215
0.00171
-0.0629848
-0.0538436
-0.0297607
0.00383466
0.0721651
0.0519979
0.0419486
0.0252359
-0.00380198
0.0021468
-0.00125544
-0.026338
0.0248278
-0.0204671
-0.0306938
-0.00789884
0.00648191
-0.0306482
-0.0216808
-0.024978
0.0141849
0.00794115
0.0250204
0.0409011
0.0274342
0.0396008
-0.00273526
0.0111343
-0.0290696
-0.0692155
0.0154026
0.0369428
0.0288391
0.0778679
0.00458227
0.0450846
0.0200619
0.00778858
0.0177182
0.0199345
-0.0297507
-0.014453
-0.0171306
-0.00659745
0.0282373
0.015014
0.016213
0.027852
-0.00518446
0.00150605
0.0459501
0.0131796
0.0216114
0.0263614
-0.00680442
0.00391665
-0.00924618
-0.00887075
0.0113437
-0.0131544
0.00610701
0.0130438
0.0322323
0.0459249
0.00368701
0.0123982
-0.0202518
0.0319811
-0.0199054
0.00133878
0.0110581
-0.00438931
0.0134031
-0.0292553
-0.0301331
-0.0308519
-0.032981
-0.00459821
-0.00195904
0.0335555
-0.00611657
0.00145019
-0.0299365
0.00465158
0.00435723
-0.0311122
0.0137374
0.0197202
0.0256777
0.0193734
-0.0131418
0.0132681
-0.02693
0.0382215
0.00191995
0.0357531
0.0168871
0.00239947
0.0128183
0.0137715
-0.00913484
-0.00795552
-0.032247
0.021714
-0.0243828
-0.0285746
-0.00757202
0.0315576
-0.00939897
-0.00986338
-0.00575056
-0.0386585
-0.00661291
-0.00100587
0.00944984
0.0221793
-0.000747715
-0.000453571
0.0327783
0.034399
0.010139
0.0374798
-0.0299762
0.0058381
0.0262311
-0.0080623
-0.01395
-0.0154129
-0.0338069
0.00804054
-0.0078696
-0.0346558
-0.0339049
-0.00315658
0.0271304
0.0350724
-0.000352379
0.0180466
0.00850482
0.0254755
0.0337668
0.0105411
0.00643991
-0.0331052
0.025923
0.00575974
0.0174524
0.0106262
0.00602889
0.0231102
0.0130623
-0.00985546
-0.034776
-0.0166374
-0.0113477
-0.0191362
0.0193585
-0.009161
0.0264192
-0.0274213
0.0159076
0.00896526
0.0276935
-0.0221444
0.00452285
0.0340926
0.0342204
0.0516298
-0.00192544
0.0467438
0.0309835
0.0391705
0.0334581
0.0395253
0.0189732
-0.0195428
0.00868936
-0.0166014
-0.0167221
0.0177133
0.0206938
-0.0235047
0.0152778
-0.00136134
-0.029894
0.0218959
0.0253816
-0.0268133
-0.0138767
0.0049642
-0.00194781
0.0194205
-0.0205742
0.0191365
0.0451386
-0.0236118
0.0234168
0.0265835
-0.0138524
-0.0214494
-0.00917876
0.0211403
0.0283625
0.00509353
-0.00870753
0.0199674
-0.0190919
0.00987541
-0.019167
-0.0211003
0.0336456
-0.0155895
-0.0340794
0.0192299
-0.0248693
-0.0323594
-0.0350538
-0.0108143
0.0104154
-0.0106668
-0.00528336
-0.00479414
-0.0280801
0.00482481
0.018155
-0.00609951
0.0144079
0.0287742
0.00379979
0.005651
-0.0309836
-0.00137211
-0.0167626
-0.00522847
0.0259525
-0.000958063
-0.0294689
0.00470094
0.0149573
0.0198904
0.0260159
0.0250393
-0.0147851
0.0260268
0.0103512
0.0176321
0.0235605
0.0191097
0.026606
0.0291949
0.0295028
0.00161072
-0.0042669
-0.0279338
-0.0103317
0.0231141
-0.00514672
-0.0235172
-0.0355323
0.0112251
0.0195349
-0.0311627
-0.0292989
-0.00816697
0.0131349
0.0219722
-0.024708
-0.0255102
-0.0322526
-0.0109899
-0.0343889
0.0341731
0.0105452
-0.031882
0.0295822
0.00981933
-0.00487751
-0.0342102
-0.0183863
-0.00771791
0.0110008
0.0201346
-0.0340837
0.0232889
-0.0258263
0.00959044
0.00360009
0.034535
-0.0026126
-0.0203722
-0.0142358
0.0201542
-0.0112472
-0.00138532
0.00771573
-0.028392
0.0346025
0.018273
-0.0249369
-0.00311398
0.0151165
0.0356249
0.019679
0.010118
0.00865745
0.0318646
0.0134401
-0.0150137
0.00479598
-0.0149925
0.0033799
0.0157023
-0.01733
0.00332791
-0.000588941
0.0314181
0.0111056
0.01894
0.00881222
-0.00387476
0.0213401
0.0175383
0.034923
-0.0210981
0.0092482
0.0292727
0.00652115
0.0298853
0.000395651
-0.000757513
-0.0035673
0.027816
0.0314756
-0.0220094
-0.0182306
-0.0228636
0.0146952
0.0306449
0.00968118
-0.0309192
0.011174
-0.0324612
0.00265082
4.84108e-05
-0.00481058
-0.0313796
0.0353983
-0.0265909
0.00720825
-0.0321175
-0.0233717
0.0114455
-0.0119687
-0.0131458
0.0109703
-0.00639036
-0.00517834
-0.0198839
0.012755
-0.0238217
0.000156168
0.00186281
0.0211653
-0.00508888
-0.0336823
-0.00779907
-0.00381434
-0.0175964
0.0323774
0.021511
0.028408
0.00764886
0.00837598
0.000320964
0.017
0.0172694
0.0329982
-0.00230363
-0.00976701
-0.027701
0.0289043
0.0229445
-0.00323629
-0.0279517
0.0261425
0.018278
-0.0334862
-0.00613699
0.0309718
-0.0317912
-0.0264155
-0.0249114
-0.0296345
0.0076278
-0.0243994
0.0100779
0.00642496
0.0129775
0.0150862
0.0227267
0.00357718
-0.0201525
0.0196663
-0.0107222
0.0356885
0.0195454
-0.0211134
-0.0235309
-0.00798168
-0.0227701
0.00578435
-0.0216585
0.0326359
-0.0227509
-0.00858537
-0.0171509
-0.0311956
-0.0289065
-0.0452291
0.00106078
-0.0036271
2.9909e-05
-0.065426
-0.035116
-0.0373777
-0.0124185
-0.0321004
-0.0278102
-0.0122031
-0.039672
-0.0112918
-0.0427533
0.0257305
0.027845
0.0253431
-0.0314562
-0.000650698
0.00943131
0.0176582
0.0184563
-0.0171052
0.0311856
0.0231603
-0.0255948
-0.00391594
-0.04493
-0.0119269
-0.00225833
-0.0196244
-0.0789397
-0.0362905
-0.0550435
-0.0357708
-0.0393055
-0.0390433
-0.0598647
-0.0451268
-0.0287641
-0.0552287
-0.00998825
-0.0442414
0.0164388
0.0173728
-0.0200679
-0.02466
-0.0315065
0.0127123
-0.0334135
-0.0110337
0.0164905
0.023808
-0.00792411
0.029758
0.00715463
-0.0227599
-0.0194568
-0.00506258
-0.0774129
-0.0747274
-0.0733424
-0.0752472
-0.0207297
-0.0648735
-0.0550929
-0.0102113
-0.0566957
-0.0012531
-0.0399889
0.0169932
-0.022108
-0.0179099
-0.0208711
-0.0193302
0.0251208
0.0276931
0.0268127
0.0250022
0.00964469
-0.0300891
-0.0193091
-0.01649
-0.0145055
-0.0162684
-0.041343
-0.000700546
-0.0198253
-0.0220809
0.00702182
-0.0148349
-0.00100928
0.0104746
0.00906321
0.00526932
0.0017201
-0.0486146
-0.0304492
-0.0306766
-0.029522
0.0308267
0.0172682
0.0156601
-0.0324954
0.011675
0.0208368
0.0174643
0.0246227
-0.0200255
0.0278989
-0.00262895
0.00082726
0.00967503
0.0122581
-0.0486507
0.000559598
-0.02624
-0.0507769
-0.0264733
-0.0110681
-0.0340075
0.0195509
-0.00684342
-0.0311205
-0.00134642
0.0123734
-0.0327365
-0.0395989
0.0173875
-0.0197114
0.00449493
0.0229
0.0269549
-0.0106218
0.00451399
0.0390606
0.0349466
0.0207196
-0.0219067
0.00259483
-0.0375451
-0.0356889
-0.0595472
-0.0291139
-0.04261
-0.0565046
-0.0328653
0.0206756
-0.0217407
0.0339118
-0.0268007
0.0204164
0.0241405
-0.00525181
-0.0217666
0.0075484
0.00405299
0.00843437
-0.00531733
-0.0341739
0.0272646
-0.0232598
-0.0132697
-0.0113646
0.0200698
0.00900775
0.0226286
-0.020512
-0.0180658
-0.0484394
-0.0209266
-0.0367634
-0.0885079
-0.0632857
-0.0797391
-0.0528357
0.0210553
-0.00632703
0.035501
0.00266703
0.0247724
-0.027187
0.00977256
-0.0337589
0.0129921
0.0334151
3.16085e-05
0.014741
-0.0160235
0.0236344
0.0117854
0.00938176
-0.012504
0.0235263
-0.0259284
-0.0228465
-0.0676777
-0.101562
-0.0696657
-0.0708424
-0.100569
-0.0948589
-0.0952317
-0.0524948
-0.00840029
0.0260503
0.000757564
0.039135
-0.00283331
0.00646098
-0.0318873
0.0344796
0.0259275
-0.00457536
0.0142597
-0.0119315
0.00753891
-0.000141615
0.0043479
-0.0310368
-0.00725643
-0.0252276
0.00378129
-0.022703
-0.0305423
-0.0716404
-0.0783403
-0.131069
-0.115656
-0.104962
-0.0590891
-0.0675935
0.00411408
-0.0210992
0.0252308
0.0373847
0.0136005
-0.0156977
-0.0124659
0.00486002
0.0265884
-0.0178807
-0.0141857
0.0162239
0.0261862
-0.0200195
-0.0233502
-0.001277
0.0306808
-0.00233304
-0.0542621
9.52555e-05
-0.0773171
-0.0559689
-0.0990694
-0.125839
-0.13367
-0.0979858
-0.047402
-0.000982836
-0.0584592
-0.04223
-0.0140394
-0.0123199
0.00420742
0.00199022
-0.004394
0.0303749
0.00738243
-0.0148462
-0.00173193
-0.00702471
0.0322375
0.0025964
0.0232776
0.0250134
0.0281141
0.0118618
0.0192083
-0.0282029
0.00192052
-0.0601955
-0.027772
-0.0600394
-0.101859
-0.0352486
-0.0313737
-0.0501587
-0.0596083
-0.0485892
-0.0100613
0.029588
-0.0226885
-0.0345763
-0.0197841
0.0220351
0.021137
0.0199756
0.0113213
-0.0143753
0.0201019
0.0297174
0.0256706
-0.012476
0.00859849
-0.0230294
-0.0272851
-0.0395427
-0.0294469
-0.0123385
-0.0419944
-0.0688973
-0.0558754
-0.053153
-0.00369895
-0.0509403
-0.0534495
-0.014343
-0.0176043
0.0249653
-0.0224516
0.0291025
-0.0262217
-0.0349567
-0.0234122
0.0227204
-0.0179133
0.00504972
-0.0109371
0.00276643
0.0146483
0.0302316
0.0370821
0.0408872
-0.0228491
-0.0306642
-0.00983708
0.00334945
0.00557411
-0.0536759
0.0117072
0.0153211
-0.0192658
-0.0198395
-0.014829
-0.0195022
-0.0206466
0.0318402
0.0332835
0.018664
0.00723808
-0.0170707
-0.0268041
-0.0215754
0.00717948
-0.000903566
-0.0103035
-0.0189858
0.000217637
0.0160988
0.0348552
0.0121605
0.0317794
-0.0288351
-0.0168629
-0.0351436
0.0127437
-0.0088816
-0.018504
0.00150418
-0.00731515
-0.0389822
-0.0354978
-0.03893
-0.0215265
-0.0233139
0.0256425
0.016777
0.0218423
0.0105431
0.0133208
-0.0164222
0.0190621
-0.0311125
0.0159396
0.026423
-0.0117631
-0.0352773
-0.00637548
-0.0438458
0.00877555
-0.00859692
-0.0152674
-0.00904506
-0.00692469
0.0133693
0.00609435
0.00339249
-0.00433179
-0.00403858
-0.0483082
-0.0207984
0.00989288
-0.0418264
-0.00681929
-0.03312
0.00132298
-0.0154994
-0.0308379
-0.018225
0.0344325
0.000461047
0.00836464
-0.0303881
-0.012555
0.0237793
0.0169592
-0.0254925
-0.0389552
-0.0430068
-0.0611772
0.0101431
-0.0458921
-0.0434956
-0.0391388
-0.0443775
-0.0182935
-0.0284487
-0.05669
-0.0377289
-0.0378885
-0.0253242
0.00413949
-0.0215875
0.0111123
-0.027755
-0.00331303
0.0184672
-0.0118706
-0.0316139
-0.0155236
0.012877
0.0228533
-0.00447332
0.01326
-0.0481378
-0.0056929
0.00158966
-0.0311572
-0.0316385
-0.0263867
-0.0234728
-0.0583343
-0.0118376
-0.0708267
-0.0797118
-0.0533815
-0.0400714
-0.0164681
0.0194521
-0.0160188
0.0282782
-0.00770538
0.0162955
-0.0209651
-0.0319322
0.00746941
-0.0104297
-0.0110802
0.0090579
0.0263297
-0.0317885
0.00902938
-0.0397239
-0.00701269
-0.0342855
-0.0693489
-0.0686042
-0.063742
-0.053873
-0.0717653
-0.0786396
-0.0851925
-0.0722285
-0.0126158
0.0126998
0.0109167
0.0225798
-0.0360879
-0.00235519
0.00741613
0.0310974
-0.0149548
0.00755878
0.0176364
0.0267026
0.027931
0.0211485
0.00336681
-0.0225428
0.00260929
-0.0553211
-0.0389994
-0.036407
-0.0623202
-0.0263259
-0.0859491
-0.0653024
-0.0878872
-0.0332295
-0.0529537
-0.0469448
-0.0285623
-0.0222578
0.0256286
0.0182262
-0.0337098
-0.00352844
-0.0319553
0.0329463
-0.0296414
0.00467696
0.0330396
0.00527861
0.027047
-0.00653588
-0.00691935
-0.00691873
0.00758652
0.0158589
0.0182142
-0.0327731
-0.0616502
-0.0237476
-0.0630082
-0.0144558
-0.024139
0.0205273
0.000139586
-0.0236865
-0.00277869
-0.00853944
0.00964692
0.0216728
-0.0373422
-0.0303984
-0.00754855
-0.0159383
-0.013087
0.0231603
0.0252508
-0.0134619
-0.0215951
0.00462017
-0.00222471
0.0357981
-0.00414114
-0.00931339
-0.00172927
0.000649771
0.0172616
0.0354572
-0.000898583
0.00221256
0.0426127
0.00914255
-0.000469107
0.0133517
0.0246495
-0.0265646
-0.0236308
-0.0210534
-0.0299039
-0.0136012
-0.00179591
0.00922422
-0.0119447
-0.0300487
0.00818005
-0.0255124
-0.0156636
0.0232126
-0.00435212
0.035401
-0.0195231
-0.0256659
0.00606273
-0.0110865
-0.0296513
0.0133213
0.0271545
-0.0206288
0.0400006
-0.00420427
0.032083
0.00455925
-0.0165203
-0.0115791
-0.000508904
-0.0135273
-0.00611365
0.0189095
0.0244006
-0.00792064
-0.00518052
0.0160124
0.0167797
-0.0291855
-0.0298765
0.0180768
0.0247843
0.00984331
-0.0100135
-0.00176381
-0.0289685
-0.00604764
-0.0222493
-0.0107742
0.030561
-0.0184649
-0.0125903
-0.0231776
-0.0101771
-0.0222479
-0.0159996
-0.0210465
-0.0234066
-0.011766
-0.0310406
0.000136243
0.0331202
0.02209
-0.00382462
0.0294994
-0.0229096
-0.00129159
-0.00199351
0.0142314
-0.0179569
0.0311932
-0.0158969
-0.0143186
0.0230317
0.0228311
0.00927872
0.0210763
-0.0351998
-0.017074
-0.0150336
0.0323551
0.0256759
0.00124581
0.0148222
-0.0174163
0.0300749
-0.000624539
-0.0290329
0.0232845
-0.0302362
-0.0155263
-0.00829558
0.0102335
0.00107796
-0.00489059
-0.0256628
0.0339268
-0.0303844
-0.0353437
0.029628
-0.0063097
0.0182381
-0.0223101
-0.0284487
-0.00548999
0.0127117
0.00196415
0.0231418
0.0240237
-0.0163927
-3.80127e-05
0.0263806
-0.0261875
0.032318
0.00274123
-0.0199515
-0.0309469
-0.0210981
-0.0215908
-0.0219352
-0.0214621
0.0326276
0.0066781
0.0170566
-0.014687
0.012845
0.0204376
0.0300974
0.0306044
0.024603
-0.0171063
-0.0294483
-0.0332052
0.0272672
-0.026709
0.0267866
-0.0111235
0.0318081
-0.00966694
-0.0162031
0.00832804
0.0264324
-0.00856698
-0.00477532
0.0124745
-0.0166355
-0.00122619
0.00198915
0.0215755
0.0210087
0.017595
-0.000951524
0.0234131
0.004217
-0.015801
-0.0109043
-0.03181
0.0296406
0.0198652
-0.0104274
-0.0157847
-0.0184251
-0.00954247
-0.0286428
0.0323474
-0.0134859
-0.00734652
-0.0303905
0.0215172
0.00391431
0.0189278
-0.0215612
-0.00337426
0.0187795
-0.00473012
0.00974739
0.0217542
-0.023254
-0.0126663
0.0330822
0.0149573
-0.0217809
0.0256207
-0.0324826
0.0185215
-0.032142
-0.0263202
-0.0303926
0.0010542
0.00456557
0.00692626
-0.0145717
-0.0279818
-0.0144606
-0.0314224
-0.0081858
-0.0329413
-0.0256232
0.0162001
-0.0033067
-0.0192898
0.0346885
0.0297685
-0.0270187
-0.0153977
0.0147829
-0.00207635
-0.0146609
-0.0110886
0.00138646
0.0216204
0.0020746
-0.0334112
0.0180977
-0.00733195
-0.0443202
-0.0187408
0.0122904
-0.00846802
-0.0283279
-0.0310544
-0.000419598
-0.0289796
-0.0382204
-0.00171518
-0.0199205
-0.0513154
-0.0206209
-0.0473468
-0.0227101
0.00308925
0.0207269
-0.00934357
0.02558
0.0174533
-0.00258208
-0.0100886
-0.00392318
0.00863547
-0.00572254
0.00414875
-0.00840586
-0.0207696
0.00509865
-0.0461661
-0.0676692
-0.069914
-0.0872169
-0.0816081
-0.0811689
-0.0694286
-0.0439928
-0.0548293
-0.0733103
-0.034478
-0.00806615
-0.00574985
-0.0303644
0.0277004
-0.0144626
-0.0255256
0.0076329
-0.0348793
0.0331953
0.0028161
-0.00806287
-0.0318608
-0.0149028
0.0234045
-0.00128721
-0.031276
-0.0455239
-0.0170396
-0.00417262
-0.0392729
-0.0723744
-0.0623859
-0.0187702
-0.075994
-0.0569347
-0.0499632
-0.0565725
-0.0515317
-0.0279095
-0.0474156
-0.0278752
-0.0035462
0.0260644
-0.00157886
-0.0122739
0.0129221
-0.00126646
0.00609738
-0.00497548
0.0326218
-0.02152
0.0163501
-0.0219321
-0.0248801
-0.0458229
-0.0524228
-0.0242538
-0.0153447
-0.0330377
-0.0292516
-0.00507973
-0.0229376
-0.017309
-0.0600782
-0.0120736
-0.0519301
-0.010997
-0.0292393
0.0134465
-0.014181
0.0129403
0.00932512
-0.00882953
0.0236074
0.0270181
-0.0315715
0.0184284
-0.00716233
-0.0113482
0.032713
0.0210966
-0.0329718
-0.0266169
-0.0550175
-0.0640571
-0.0146819
-0.0349408
-0.0327506
-0.0279412
-0.00102857
-0.0278733
-0.027863
-0.0424562
-0.0220839
-0.0183571
-0.010573
-0.00433234
-0.037877
-0.0140019
0.0319626
-0.0124201
-0.0126399
-0.0221262
-0.0076285
-0.0147823
0.0359835
-0.0123473
-0.0114442
-0.00280187
-0.0162757
-0.04223
-0.0691272
-0.0369141
-0.0619502
-0.0233464
-0.056607
0.000464874
0.00642363
-0.0252849
0.0138484
-0.0194371
-0.0176979
0.0126434
0.00212433
-0.00281208
-0.0351969
0.0119989
0.00333754
-0.0106272
0.00557662
0.0199827
-0.0320699
-0.0339886
0.00470085
0.0204286
-0.0196017
-0.00596631
-0.0293366
-0.0522642
-0.0895646
-0.0670466
-0.0703862
-0.085916
-0.060355
-0.0647889
0.00041715
-0.0185327
0.0146954
0.005921
0.0100924
0.0231765
0.0171657
0.00273223
-0.0174659
-0.0278059
-0.0167589
0.0166751
0.0341056
-0.000292633
-0.0206475
0.0208045
0.00732339
-0.0136348
-0.0170329
-0.0129584
-0.0818275
-0.0581694
-0.115043
-0.0785055
-0.0775595
-0.10862
-0.0405477
-0.0547931
-0.0238452
-0.0505941
0.00146496
0.00827318
-0.0345172
0.00482791
-0.0251288
-0.019234
0.0161205
0.0351061
0.0180056
0.0280935
0.00340396
0.0281741
0.0253489
0.00642393
0.0122965
0.00778604
-0.0503228
-0.0384713
-0.107377
-0.105296
-0.0953902
-0.0812274
-0.0752723
-0.0669235
-0.107788
-0.0617062
-0.0369323
-0.0333465
-0.0250752
0.0049008
-0.00442765
-0.0168182
0.00359641
-0.00984408
0.0172156
-0.0301105
-0.0289217
0.035505
-0.0325382
-0.00737961
-0.0298426
-0.00903765
-0.00912911
-0.0268639
-0.0358255
-0.0737196
-0.0870593
-0.0661249
-0.052353
-0.058987
-0.0976035
-0.0996469
-0.0924699
-0.0230757
-0.0354188
-0.0567468
-0.018556
-0.015345
-0.00660638
0.0187303
0.00796517
-0.0195076
-0.0284904
0.00257427
0.0153933
0.00485353
-0.0346352
0.000779127
-0.00475746
0.0309556
0.0234543
0.00627167
-0.0379346
-0.0662573
-0.0605043
-0.0559547
-0.0454768
-0.0923743
-0.0781579
-0.0961612
-0.0207627
-0.0301095
-0.0841321
-0.0898847
-0.0297159
0.00291061
-0.00134694
0.00815976
-0.0317119
0.0116018
0.00740905
0.0117587
0.034001
-0.0306351
0.0291005
0.0258088
0.0086005
0.0277056
0.00470773
-0.0317895
0.0183582
-0.0156679
-0.0448396
-0.0550904
-0.0194662
-0.00687601
-0.026332
-0.00923392
-0.0351057
-0.000106897
-0.0377597
-0.0373332
-0.0745143
-0.00777661
0.00449039
0.0284948
0.0221007
-0.0133613
-0.0283311
-0.0217418
-0.0148719
0.0319845
0.0244639
-0.0178747
-0.0200588
0.028921
-0.00689418
-0.0281853
0.0231558
0.00950942
-0.0259812
-0.0284292
-0.0103285
-0.0032495
0.0205236
0.0080828
0.00946337
-0.0280975
-0.0399237
-0.0199917
-0.0331235
-0.0364196
-0.0147797
0.00590713
0.0176293
0.00125062
0.011616
-0.0171288
-0.0282328
-0.031058
-0.0257304
-0.00317699
-0.0219507
0.0117813
0.0228414
-0.0233273
0.00967136
-0.00274144
0.0132726
-0.0487162
-0.0308445
-0.00510448
0.014749
0.0121972
-0.0321746
-0.0318737
-0.0486251
-0.0158977
-0.0647652
-0.0221601
-0.0366358
-0.00198643
-0.00921448
0.0234871
0.0233756
0.0169701
0.00456797
-0.0320194
-0.0223319
0.0353271
-0.00432176
0.00902822
0.00810202
0.0156041
0.00696856
0.00952712
-0.0209305
-0.0186686
0.00217371
0.00739632
-0.0180893
0.00583474
-0.0392354
-0.0468576
-0.0844005
-0.0216947
-0.0117481
-0.022173
-0.0269933
-0.0303023
-0.0121795
0.0118957
0.0206489
-0.0124176
-0.0175209
-0.0010736
0.0179918
0.00465984
-0.0105063
0.00990371
0.0220017
-0.0199112
-0.0342235
0.00363258
-0.0233365
-0.0212608
-0.0378877
-0.0078992
-0.00206094
-0.0116388
-0.0516991
-0.0845907
-0.0475377
-0.00679071
-0.01416
-0.0125647
-0.0250439
0.00916649
-0.0140012
0.0291021
-0.014561
0.0349617
0.0228316
-0.00696367
-0.0127338
-0.007252
0.0105515
0.0264323
0.0191472
-0.0292423
-0.000649829
-0.0272242
-0.000681146
-0.0088473
-0.0342715
-0.0760775
-0.0605331
-0.0655646
-0.0387478
-0.0820023
-0.0758789
-0.0574563
0.00278172
0.0121188
-0.0175979
-0.00940706
-0.0173463
0.0345932
-0.0180968
0.0309708
0.0227134
-0.0283288
0.0055184
-0.0207039
-0.0114136
-0.029857
0.00821523
0.00853716
-0.0429072
-0.0705987
-0.0252179
-0.0285451
-0.0464047
-0.0540426
-0.0724775
-0.095068
-0.100508
-0.0455861
-0.0866994
-0.047933
-0.0279247
-0.028267
0.000930433
-0.0123696
0.0168136
0.00719029
0.00568719
0.0304194
0.0114608
0.0149857
0.00580615
-0.0321689
-0.0168592
-0.0386685
0.0111753
0.0170523
-0.0271862
-0.0586332
-0.0548891
-0.0831818
-0.0591363
-0.0816949
-0.0597862
-0.0697093
-0.0539782
-0.0291622
-0.01253
0.00104188
0.0066729
-0.029553
0.0302461
0.015192
-0.0332236
-0.0195912
-8.3809e-05
-0.026166
0.0338527
-0.00309436
0.0203308
0.00801656
0.0196026
0.0077136
0.02274
-0.0197255
0.0274096
0.0109198
-0.0308188
-0.0525269
-0.0610299
-0.000104238
0.00546406
-0.0173766
-0.0462387
-0.0419819
-0.0174015
-0.00584349
-0.00324687
0.0168421
0.0209742
0.00533206
0.0255027
0.00460517
0.0290961
-0.0210065
-0.0193411
-0.0229205
-0.00432818
-0.0128298
-0.0202305
0.0239061
0.0205879
0.0258491
-0.00736471
-9.2371e-05
0.0410545
-0.0201718
0.0313039
-0.00155468
0.0116756
-0.0106894
0.0187261
-0.00952422
-0.0175884
0.0314972
0.0013119
0.0256786
0.0290235
0.00571095
-0.0247331
-0.00362656
0.013002
0.0227025
0.0344325
0.0332466
0.00103218
-0.0294297
-0.0320913
0.00549009
0.0259245
0.00683827
0.00958906
0.0105027
-0.00975423
0.0259951
0.000180992
0.0361589
-0.0194011
0.0397497
-0.0268544
-0.00240438
-0.00737832
-0.00620002
-0.0325327
-0.0118635
-0.0206033
0.0201324
-0.000659418
-0.031348
0.027786
-0.00731463
0.00489931
-0.00391182
0.0147546
0.00489713
0.00607863
0.00758712
-0.0217477
-0.00890847
0.0197223
0.02899
0.00459652
0.0222988
0.0217873
0.0330042
0.0199594
-0.0208677
0.0103613
0.00169784
0.0249679
0.023743
0.0165117
0.0136458
0.00848088
-0.00739093
0.0270274
0.0344848
0.00234884
-0.017643
0.00714678
0.0129126
0.0100569
0.0321916
0.00444589
-0.016335
0.000726994
-0.0212398
0.0268552
-0.023581
-0.0250699
0.0158642
0.0136799
0.00405787
0.00872502
0.0354614
0.0357099
0.00701381
0.000995121
0.0017995
-0.032451
0.0237597
0.0280476
0.00365023
-0.0173574
-0.0353328
0.030949
0.0226785
-0.0285839
-0.0263691
0.0253206
-0.0084569
0.0187373
-0.0310537
-0.0123894
-0.0345589
-0.0303496
-0.00929834
-0.0352674
-0.0192779
0.00511371
0.0171723
-0.010523
-0.00433285
-0.0279518
0.0226836
-0.00754288
-0.012832
0.0315889
0.00765093
0.00458763
0.0266219
0.00605465
-0.0188288
-0.0127426
-0.0189945
0.00905637
0.0111011
0.0112733
0.0186021
-2.72487e-05
0.00082073
-0.0231755
-0.00592791
-0.00221462
0.0344773
0.0273657
-0.0341254
-0.0303391
-0.0290294
-0.00820106
-0.0142054
0.0284412
0.0208068
0.00376329
0.000501004
-0.00567313
0.0297288
0.000506615
-0.02843
0.0253052
-0.00586921
0.0180593
0.0354091
-0.0193694
-0.0335584
-0.00247527
-0.0272585
-0.0103251
-0.0114126
0.0317019
-0.0342651
0.0314382
0.0197245
0.0190432
0.0208102
0.0193812
0.010148
-0.0300053
-0.0282528
0.000129577
0.00801611
-0.0295364
-0.0158934
0.0148939
-0.0116648
-0.0109277
0.000147218
0.029361
0.0321198
0.0304795
0.0258088
0.00501485
0.031409
0.0136974
-0.0138176
0.0350647
-0.00507887
0.0322364
0.00891376
0.00196291
-0.0199846
0.0208053
-0.0235725
0.00465585
0.0189373
-0.00573161
-0.0245692
-0.023587
-0.00131182
-0.01701
0.0213901
0.00393892
-0.00939802
-0.0323089
-0.0278564
-0.015102
0.00335654
-0.0359177
0.0189771
-0.030258
0.0298264
0.0218611
-0.0208038
-0.00782579
-0.00222797
0.0225296
0.0308369
0.0380904
0.0116149
0.023755
0.00209454
0.034983
0.0403347
0.0380594
0.0436494
-0.00252115
-0.0374741
-0.0216963
0.0203813
0.0198893
0.0298165
0.0353654
0.0204621
-0.0270639
-0.0259688
-0.0342674
0.0317155
-0.00426344
-0.0212267
0.00982151
-0.0215929
-0.0107847
0.0203305
0.0115444
0.0343696
-0.0159276
0.0238425
-0.00623781
0.0104522
-0.0138027
0.00962847
0.027739
0.0208414
0.0219064
0.0100564
-0.00811625
-0.000508223
0.0110055
-0.0239827
-0.0193351
-0.0271802
-0.0209368
0.00820815
-0.0338701
0.033831
-0.0118633
0.0343584
0.00196308
-0.0317113
0.00694339
-0.00274554
-0.0221103
-0.00188374
-0.0155724
-0.00504203
-0.0151841
-0.0351544
-0.0225988
0.00278472
0.0221405
-0.0239271
-0.00742516
0.0129664
0.00696926
-0.0350391
0.0237124
0.00707634
-0.0425549
-0.0399446
-0.0030715
0.00606217
-0.00515957
-0.0344232
0.0119506
0.0341993
-0.00564368
-0.0305066
-0.00857384
0.0270609
-0.0226664
0.0347885
0.00861291
0.0116856
-0.0309497
0.000576205
-0.0526464
-0.0327693
-0.0128385
-0.00436993
-0.00408043
0.00537367
-0.0141958
-0.00331195
-0.00456169
0.011044
-0.0347081
-0.0467352
0.00290456
-0.0232863
0.0208643
0.0246244
-0.0183488
0.0270794
-0.00119684
0.00407271
0.0227506
-0.0301662
0.0207196
-0.00225435
-0.0220488
-0.017586
-0.00610281
-0.0469375
-0.00352554
-0.0707632
-0.0404202
0.0175035
0.00180475
-0.013497
-0.043488
0.0183114
0.00022846
-0.0422558
-0.00764244
-0.0533799
-0.0321188
-0.0205625
0.0034092
-0.0342072
-0.0255468
0.0023908
-0.00887906
-0.00397556
0.0257187
-0.0308686
-0.00506811
-0.0295702
0.00350722
-0.0270159
-0.02716
-0.0512122
-0.0446482
-0.0313806
-0.0185798
0.00990866
0.0347916
0.0386919
0.0062448
-0.0056511
-0.0316153
0.0176877
-0.0532227
-0.0376384
-0.0210667
-0.0243381
0.023608
0.0282824
0.0143075
-0.00483127
0.0146029
-0.0156501
-0.00274224
-0.0222821
-0.00259418
-0.0223515
-0.0233075
-0.0535591
-0.02812
-0.0470698
-0.0539859
-0.0629813
0.0151639
0.0817141
0.0936205
0.0614486
0.0349863
0.0288567
0.0296826
-0.0187472
-0.00124576
-0.0235973
-0.00914996
0.0105007
0.0288164
0.00382238
-0.00738438
-0.00848088
0.0211531
-0.0217051
-0.0155532
-0.0275551
-0.0106908
-0.0220625
-0.0188663
-0.0487663
-0.0244286
-0.0308302
-0.0590735
0.0110914
0.0189594
0.106728
0.120655
0.0589032
0.0292833
0.0590021
0.0267327
-0.0282652
-0.068397
-0.0710962
-0.0428134
-0.00666311
-0.00667489
0.00596986
3.82943e-05
0.0299118
-0.00531089
-0.0201473
0.00529372
0.0328305
-0.00122319
-0.00220736
-0.0338196
-0.000477598
-0.0220092
-0.00766597
-0.0262878
0.0171191
0.0702093
0.121647
0.127668
0.0405188
0.0430532
0.0112451
-0.0144548
-0.0221345
-0.0621058
-0.0602636
-0.015603
-0.0421508
0.0285321
0.0190695
0.0262657
-0.00964494
-0.000288836
0.00515958
-0.00376481
0.0251415
-0.0318083
-0.0342381
-0.00607138
-0.0236116
-0.00205475
-0.0220398
0.020552
0.0321174
0.0594871
0.119098
0.124209
0.0593789
0.0673849
0.0229204
0.00301913
0.00263824
0.00471168
-0.0377018
-0.0428397
-0.0308839
0.0240915
-0.00236292
0.0112145
-0.0345546
-0.0122565
-0.0237697
0.038126
0.0371098
-0.0100309
-0.000477491
-0.0469083
-0.0111312
0.0136394
0.0182181
0.0234762
0.0703331
0.122269
0.13081
0.078482
0.0800072
0.051577
0.0254871
0.0150967
0.00484949
-0.0250952
-0.0556633
-0.0431516
-0.0192653
0.00921929
0.0299203
-0.0106137
-0.00405569
0.0105627
-0.0346483
-0.0193139
0.000830726
0.0148279
-0.00224848
-0.0423147
-0.00410566
-0.00202984
-0.00583727
0.0207795
0.0519406
0.10218
0.122058
0.105452
0.01686
0.0502777
0.0407595
-0.0351855
-0.0615302
0.00199901
-0.0110298
-0.0256328
-0.0115603
0.0205052
-0.0283444
0.0307034
-0.00991961
0.0247996
0.0229777
0.021826
-0.0258336
-0.00858813
-0.00149245
-0.019545
-0.0140226
-0.0207549
0.00268548
0.0552768
0.0674986
0.102231
0.0690711
0.0698878
0.0575073
0.0056761
0.0117275
0.0112329
-0.0272796
0.00895529
-0.0108557
0.00141864
0.0304116
0.0210643
0.000880273
0.00160025
-0.0328063
0.00923512
-0.00462245
0.0248119
-0.0233971
-0.00992809
-0.0167878
-0.0378857
-0.00831408
-0.0145599
-0.00496229
0.0149337
0.0579404
0.0430231
0.0723264
0.00378717
-0.00652575
-0.0101013
-0.0503254
-0.0582325
-0.024218
-0.0263251
-0.0178024
-0.00734672
0.0303423
0.0217332
-0.004087
-0.00749338
0.016359
0.00855499
-0.00884674
-0.0294154
-0.0284001
-0.0322826
-0.0497756
-0.0626294
-0.0471283
-0.0706514
0.00365418
0.0268676
0.028595
0.0407919
-0.00772864
0.0241576
-0.0283119
-0.020751
0.0138476
0.00917538
0.0212238
-0.000149968
0.00216111
-0.0135096
-0.00324218
0.0171214
-0.0306479
0.00769611
-0.0322374
-0.0325731
-0.0222796
0.0153434
-0.0192322
0.0278584
0.00810469
-0.0351302
-0.0338449
-0.0454599
-0.00576686
-0.034769
-0.0250144
0.030144
-0.0239963
0.0216286
-0.0288503
-0.00631288
0.0222989
-0.00232865
-0.0139147
-0.0302844
-0.0260857
-0.00468875
-0.0280281
0.0325383
0.0357169
-0.0221404
0.0246055
-0.031252
0.0214801
-0.0219867
0.0286003
0.0366189
-0.0380444
-0.0485918
-0.0428743
-0.0181104
-0.0177315
-0.0136634
-0.021984
0.00989296
0.010939
-0.0154366
-0.00736245
0.0084638
0.0162457
-0.0186131
0.014824
0.0356432
-0.0158367
0.0234645
0.00540608
0.0229943
0.00409261
-0.0227941
-0.00386822
0.0255821
0.0123117
0.0183601
-0.013179
0.0158275
0.00408056
-0.0107978
0.0012135
-0.00139712
0.0081811
0.00759629
-0.0203704
0.00692584
0.00933783
-0.00727339
0.00288912
0.0355065
-0.0228335
-0.0159743
-0.0033567
-0.00625045
-0.0110099
0.0135405
0.0285115
0.0137485
-1.2379e-05
-0.00948363
0.0224562
-0.0307659
0.0210063
0.0378949
0.0196277
-0.0230243
-0.00675854
0.0203228
0.035917
-0.026426
-0.0184881
-0.0396993
-0.0256252
-0.0247768
-0.00291433
0.0428001
0.012935
0.0311526
-0.0086032
0.0123337
0.00150533
0.0229992
-0.0292725
0.0216563
0.0341622
0.00383474
-0.00892942
-0.0300618
0.00318155
0.0115741
0.000179841
0.0143637
0.00403077
-0.00990822
-0.00146701
-0.0177814
-0.0264803
-0.0208918
-0.00982684
-0.0268982
0.0134275
0.0136924
0.00725833
0.00877235
0.0282938
-0.0238017
0.0264292
0.0162979
0.0374506
-0.0219705
-0.0221019
0.027453
0.0333906
0.00535491
-0.0178784
0.0265631
-0.0223733
0.0239995
-0.0219984
-0.00309695
-0.00443624
-0.0081301
0.023967
-0.0043768
-0.0170132
-0.00786746
-0.0234179
0.00441155
-0.0243562
0.00351323
0.0149919
0.0246412
0.00330175
-0.00242033
0.0232399
0.0298431
-0.0327679
0.0127711
0.0230877
0.0139008
-0.0184965
-0.0264824
-0.0332575
-0.0038159
0.0258459
-0.0316553
-0.00273904
0.0244006
0.0162042
-0.0305032
-0.0135269
-0.0037609
0.0241905
-0.0247795
0.00777162
-0.0325958
-0.0147037
-0.00364151
-0.0276134
0.00856036
-0.028149
-0.0020248
0.000974333
-0.0310977
0.0248327
0.0301425
-0.000372693
-0.0100918
0.0228813
-0.00900405
-0.0285359
0.0107632
0.0095948
0.0221139
-0.0129497
0.0318624
-0.0127055
0.0180659
-0.0157496
-0.0198562
-0.0151899
-0.00346661
-0.00569731
-0.0159794
0.00303593
-0.0191665
0.02605
-0.00551304
-0.032606
0.0266157
-0.00877133
-0.0135499
-0.0199537
0.0188964
0.031276
0.0165748
0.0176146
0.0352565
-0.00465516
0.0287146
0.00825417
-0.0238339
0.0235396
-0.0197989
-0.00673696
0.016819
0.015147
0.00579961
0.0347639
-0.0355508
0.0318711
0.00581269
-0.00295921
-0.0050519
-0.0101267
0.00744979
0.00706177
-0.00553802
-0.034753
-0.0283462
0.00721872
-0.0184539
-0.0277381
-0.0327431
-0.00818659
-0.0219177
-0.0333426
0.0271844
-0.0169389
0.0187373
0.00476416
-0.0342625
-0.0189749
0.0244006
0.0249674
-0.0282983
0.014674
0.0150598
-0.0319583
-0.0294543
0.0284763
0.0303774
-0.0114106
-0.00230213
0.015587
0.019212
-0.0258933
0.0141382
0.00214113
-0.00521119
-0.0190054
0.0226654
-0.0287343
0.00267364
0.0184081
0.0237009
0.0246797
-0.0161715
0.00357394
0.00955992
-0.0101768
0.0084351
0.0336092
0.0158965
0.0285092
0.034323
0.0117385
-0.0341859
0.00600688
0.0214306
-0.0143161
0.0124787
-0.00187628
-0.00798162
-0.0369808
0.00391192
0.00352526
-0.000289734
0.0294807
-0.0120174
-0.016135
0.0163873
-0.00888852
-0.0125311
0.00321861
0.035069
0.0286514
-0.0201564
-0.0175274
-0.0144211
0.0258312
-0.0270263
0.0278156
-0.0193016
0.0268824
0.00280241
-0.0196847
0.0290585
-0.010066
0.00580431
-0.0478046
-0.015107
0.00819156
-0.0142375
0.0121298
-0.0227369
-0.0244063
-0.00423667
-0.0222299
0.0301749
0.0356097
0.022018
-0.0243265
0.00590642
0.0306307
-0.00688737
0.0255348
-0.0278966
-0.0165988
-0.0186758
0.0104289
-0.0134744
0.0329752
-0.00423589
0.00117546
-0.00940003
-0.00455909
-0.01945
-0.0433237
0.00418686
0.020296
-0.037523
0.0199775
-0.0253337
-0.0019702
-0.0242689
0.0103916
0.0113597
0.0100984
0.0223036
0.0270754
0.0100766
0.0261249
0.0332637
0.0304414
-0.0343168
-0.0344629
0.0244274
0.0226096
0.00749664
0.0134971
-0.00460195
-0.0138546
-0.0479269
-0.0306715
-0.00551121
-0.054335
-0.00458568
0.0115197
-0.0219137
-0.00787182
0.0114762
0.0222364
0.0244656
0.0280778
-0.0335288
-0.0272777
-0.0262822
-0.0282743
-0.0281849
0.0338156
-0.00850998
0.0176284
0.000220326
-0.0274705
-0.0270684
0.00862681
0.0157388
-0.0108623
-0.0186987
-0.0473475
-0.02207
-0.0527739
-0.0614552
-0.0146354
-0.0162752
-0.0526047
0.00135225
-0.0218807
0.00207782
-0.0062346
-0.0226833
0.0152448
-0.0247258
0.0354856
0.024656
0.0194218
-0.0245685
-0.0189314
0.00875598
-0.0269838
0.00199829
-0.0151331
0.0220219
0.0126072
0.00248591
-0.0143112
-0.0414725
-0.0661764
-0.0277774
-0.024168
-0.0553474
-0.0202748
-0.0125802
-0.0340131
0.0154139
0.00031957
-0.0358187
0.00110317
-0.0246897
-0.0126846
0.00359556
0.0236431
4.8714e-05
-0.024163
0.0123339
-0.0101485
-0.0328156
-0.0273037
-0.0316847
0.00486352
-0.00129484
-0.0328777
0.00343478
-0.0254229
-0.0602406
-0.0689221
-0.0234937
-0.0601661
-0.0106476
0.00333813
0.00177494
-0.0572868
-0.0453983
0.00976962
-0.0222795
-0.0327987
0.0319567
0.0256708
6.10864e-05
-0.0114272
-0.0123395
0.0105882
0.0250954
-0.0147793
0.0105971
0.00197362
0.00213305
-0.014978
-0.019569
-0.0179971
-0.0176687
-0.0452012
-0.0309909
-0.0503363
-0.0366627
-0.065113
-0.00910025
-0.044076
-0.0509111
-0.0558428
0.000263937
0.0116989
0.00802068
0.0301786
0.022142
0.0247225
-0.0278089
0.0320348
0.0215197
-0.00927409
-0.0305287
-0.0348827
0.01423
0.00714418
0.023812
0.0296564
-0.0196025
0.0167222
0.00959038
-0.0505066
-0.00930771
-0.05736
-0.020097
-0.0654639
-0.0635094
-0.0433931
-0.00284816
-0.0543674
0.0104524
-0.0341814
-0.0380297
-0.0158214
-0.00595787
-0.0179951
0.0274928
-0.0323193
-0.00567071
-0.0154164
0.00824977
0.0167113
0.0274073
0.0220617
-0.000942149
-0.00767247
7.16535e-05
-0.0181193
-0.0324282
-0.0355699
0.000271272
-0.00802643
-0.038231
-0.0569873
-0.00659507
-0.050895
-0.02016
-0.0312427
-0.0444004
-0.0205151
-0.0354947
-0.0222562
-0.0292516
0.0022495
0.015082
0.00291243
-0.0337573
0.0050628
-0.0135024
-0.0114016
0.0303751
-0.0090672
-0.0224111
-0.0251773
0.0233315
-0.040148
-0.0220642
-0.0312207
-0.0275587
-0.0501341
-0.010462
-0.0401889
-0.0205605
-0.00912584
-0.00467224
-0.0385818
-0.031697
-0.0204911
-0.0355768
0.00445116
0.0120002
0.00379229
-0.0174782
-0.0169461
0.00176777
0.0260994
0.0164222
-0.0221417
-0.034456
-0.0134927
-0.00597896
0.00195699
-0.019963
-0.0265234
-0.000696793
-0.0275676
-0.0317151
-0.0284607
0.00307465
-0.0136616
-0.0406375
-0.0098434
-0.00110844
-0.029653
-0.00273322
-0.00547506
-0.0183575
-0.0264393
0.0153128
-0.000319827
-0.0255123
-0.00527901
-0.0124604
-0.01591
0.0354636
-0.0318971
0.0306894
0.00754542
0.0257875
-0.0416205
-0.00899587
-0.0137529
-0.00830763
-0.0386539
-0.00231889
-0.0550866
-0.00282711
-0.0529327
-0.0242293
-0.0319938
-0.0334155
-0.052951
-0.0244085
-0.0242586
0.00741237
0.00742628
-0.017049
0.010572
-0.00600807
0.0291851
-0.00818659
0.0121976
0.0230273
-0.00835827
-0.0327708
-0.00672791
0.0166567
-0.0126129
-0.0246798
-0.0388209
-0.0280435
0.00715197
-0.0536605
-0.0358009
-0.0312046
-0.0759894
-0.0715454
-0.0252493
-0.0223851
-0.0190902
0.00950362
-0.00725945
-0.0200842
-0.0201717
-0.00696911
0.0101565
0.000114238
0.00422115
-0.0244007
-0.023339
0.0254295
0.0100744
-0.0184725
0.0147968
0.00185671
-0.0149226
-0.0116074
-0.0309661
0.00734638
-0.00389827
-0.0202521
-0.0230008
-0.0570051
-0.0337861
-0.0848322
0.00532109
-0.00183987
-0.0259905
0.0137327
-0.0549297
0.00663641
-0.0421922
-0.0218351
-0.0182847
-0.0352203
-0.0177952
-0.0128584
-0.0084678
0.031409
0.0288475
0.0353971
0.00372629
-0.00867704
-0.0115122
-0.0172666
-0.019994
-0.0480917
-0.0293468
-0.00154194
-0.0267992
-0.0609949
-0.0636731
-0.0691379
-0.0138717
0.011389
-0.0495048
0.0013834
-0.0298125
-0.0235321
0.0234477
0.027895
0.0271571
0.0264452
0.0280329
0.00721211
-0.0190599
-0.00936591
-0.00295751
-0.00561888
-0.024665
-0.00573573
-0.0411547
-0.0299989
-0.000610185
-0.017939
-0.0631207
-0.0516639
-0.0189932
-0.04042
-0.0140972
-0.0686409
-0.00950726
-0.0544789
-0.0209254
-0.0257491
0.0153787
0.0111031
0.0197792
0.018239
-0.0246175
0.0269271
-0.0268756
0.00551404
-0.0347072
0.0176342
0.0080906
0.0170139
0.0309642
0.0192874
0.00128521
-0.0274505
-0.0197214
-0.0183006
-0.0433645
-0.0704365
-0.0706882
-0.0318549
-0.0171185
-0.00908904
-0.0467549
-0.0482044
0.00612432
-0.0469644
-0.0473204
-0.00414858
-0.0448018
-0.0395738
0.00331285
-0.0162136
0.0293664
0.0184081
-0.00227908
0.00208943
-0.00425301
0.0293079
0.0309808
0.0288395
-0.0291442
-0.0352385
-0.0485443
-0.0456785
-0.0126053
-0.0258005
-0.0718104
-0.0483281
-0.032523
-0.0069227
-0.0368259
0.00416491
0.00506319
-0.0141203
-0.0145108
-0.0100753
0.0224143
0.0114995
-0.0075056
-0.00167411
0.0188125
0.0225511
-0.0014638
0.025096
0.0120642
0.0250757
0.00823535
-0.0176557
-0.0201152
-0.0283987
-0.0404699
-0.0587704
-0.0304372
-0.0737238
-0.00463065
-0.0327418
-0.0667237
-0.0561018
-0.0522486
0.0187609
-0.021414
0.00503435
0.000532209
0.0161766
-0.00988495
-0.0157694
0.0254585
0.00159903
0.0202393
-0.0139023
-0.0145061
0.0166206
-0.0040049
-0.0351444
-0.00292056
-0.0114792
-0.0352755
0.0257696
-0.0150126
0.00414373
-0.0215064
-0.00651627
-0.0570231
-0.0486134
-0.0513067
-0.000218479
-0.0483707
-0.0110747
-0.0393793
-0.0139278
0.0123637
0.00844141
-0.0028678
-0.0311489
-0.012252
-0.0128124
-0.0159028
0.0149813
0.0190163
-0.0176953
-0.0229411
0.0137596
-0.00487451
-0.00961609
-0.00591001
0.0173746
-0.0226717
0.0152245
0.0103631
-0.0338037
-0.0389821
0.00187412
-0.0469347
-0.0464992
-0.0293809
0.0201716
-0.0136037
0.00405686
-0.0193667
-0.0290558
0.00544191
0.0304241
-0.0177658
-0.0131523
-0.0257172
-0.0242066
0.0030355
0.0205749
-0.0207188
0.0347109
-0.00111915
-0.0234256
-0.0290978
-0.0208992
0.0320764
-0.0282618
0.00892822
-0.0214971
-0.00639078
0.0179048
-0.00554725
0.0249432
0.00767191
0.00285108
-0.0300622
-0.023646
0.00708257
-0.0153898
0.00143224
-0.0347285
0.0352753
0.0109769
0.0166184
0.0128625
0.0177956
0.0296324
-0.00154445
0.00486069
0.00517446
-0.00643487
0.026347
-0.00135747
-0.0240804
0.0320729
0.00747793
0.0192257
0.00191517
0.00939661
-0.0342773
0.0246469
0.013088
0.0257809
-0.0259539
-0.0280631
0.0137459
-0.0329892
-0.00294055
0.00802077
-0.00843103
-0.00414725
-0.00175372
-0.0160451
-0.0319496
-0.0318537
0.0325447
-0.0130826
-0.0223297
0.0183845
0.0263845
-0.00293371
-0.0246669
-0.0248312
0.00311069
0.00828811
0.0331723
0.0136018
-0.0270738
0.0219063
-0.0301185
-0.0296877
0.0107582
0.0142703
-0.0154697
0.0269206
-0.024686
0.0246993
0.0245576
-0.0213379
0.0264606
0.0177825
0.00879042
-0.00219406
-0.033421
-0.0344826
0.00764598
-0.0354135
-0.0067023
0.00998772
-0.00289686
-0.00566228
0.0236276
0.0039883
8.84878e-05
0.0240821
-0.0212221
0.0226872
0.0249383
0.00654337
0.0329561
-0.0162816
0.0355179
0.00782691
0.00608735
-0.0245162
0.00926346
-0.0286493
-0.0231908
0.00356304
0.0318951
0.0143666
0.00625302
-0.0338701
-0.0161912
0.0199253
-0.0205291
-0.00174936
-0.0179612
0.0345655
0.0282307
-0.00237063
-0.00982587
0.0188419
-0.0330875
-0.0313153
-0.0263604
0.0332597
-0.00636202
-0.00041963
0.0132701
-0.0220703
0.0159492
0.00835662
-0.0313196
-0.0314788
-0.00383552
0.00148342
0.0329633
-0.0331921
0.0329567
-0.0190032
-0.0154958
0.0341426
0.0027216
0.0292226
-0.0225346
-0.0310384
-0.0226284
-0.00704433
0.0338265
-0.0175644
0.0278362
0.0110667
0.00795489
0.0304455
-0.0130325
0.0173572
-0.0334801
0.0274372
-0.00446333
-0.0252617
-0.0143666
-0.0110314
-0.0236551
0.0271887
-0.0010627
-0.0287168
0.0030355
-0.0233063
-0.00399683
-0.00238371
-0.00564266
-0.00551922
0.00210517
-0.0175883
-0.0138378
0.0282884
-0.0275184
-0.013271
-0.0153341
-0.0281554
-0.0215527
0.0262936
0.00153395
-0.031487
0.0200557
-0.0121935
0.0114084
0.0278994
0.00584756
0.0146761
-0.0217891
-0.0151688
-0.0071555
-0.0234851
-0.021654
0.00784435
0.0266764
-0.0243941
0.0232257
0.00080644
-0.025704
-0.00324131
0.00858963
-0.0224856
0.0205734
0.00440241
-0.0224466
0.00793827
0.0239782
0.0241744
0.0349985
-0.012661
0.0141057
0.00858335
0.00317274
0.00828247
-0.0055947
0.0125246
-0.0209935
-0.0124352
0.00486007
-0.0126074
-0.0177258
-0.0026998
0.00758047
-0.0310151
0.0263986
0.0301287
-0.015881
-0.000368806
0.0326836
0.0399088
-0.0230933
0.00581418
0.0395671
-0.0070455
0.024719
0.0287349
0.0448317
-0.00340829
0.0153649
0.0385928
0.026475
-0.00237853
0.0147678
-0.0259831
-0.00571459
-0.0171634
0.0317447
0.0320041
-0.0174468
-0.00701628
-0.0227533
-0.0058202
0.0264763
-0.0154561
0.000677528
0.0231206
0.00120587
0.00674262
0.0697502
0.0818678
0.020196
0.0872602
0.0807595
0.0607506
0.0161942
0.00679318
0.0244728
-0.0217253
-0.0130816
0.0369972
-0.0195337
0.0153999
0.0186067
-0.00720346
0.0252966
0.0216627
-0.0191645
0.0331633
0.0126684
-0.00356898
-0.0134198
-0.0301076
-0.0246078
0.0105232
0.0448368
0.0219175
0.0469823
0.0403794
0.0488723
0.0395732
0.0988469
0.0633035
0.034274
0.011578
0.0446377
0.0268431
0.023226
-0.00332446
-0.00630341
-0.0262869
-0.0207479
0.0300509
0.0289871
-0.0250792
0.0102965
0.00178957
-0.0242914
0.0224889
0.0199254
0.022114
0.0351322
0.028135
0.0617976
0.0553635
0.0328453
0.0802869
0.0987942
0.0489494
0.0802212
0.0557426
0.0670278
0.065428
0.0287809
0.0314034
0.0412505
0.0266474
-0.0286183
-0.0310735
0.00461878
-0.000934084
0.000561323
-0.0306086
0.0212481
0.03423
-0.0343883
0.0101252
0.0109109
0.0237162
-0.0246619
-0.00739037
0.0334339
0.0619695
0.0714699
0.0554167
0.0811757
0.0990854
0.0856754
0.0931705
0.0770538
0.0442883
0.0407638
0.00164508
0.0227848
0.0186757
0.0355402
0.0110974
-0.0143205
0.000596166
-0.0030389
0.00664687
0.0274447
-0.00207288
-0.023986
0.0195654
0.00193665
0.0248685
0.0321216
0.0589816
0.0776987
0.0599259
0.0436808
0.0301962
0.0174416
0.0633876
0.0150383
0.0749442
0.0807772
0.0628051
0.0681824
0.0135616
0.0463256
-0.0201778
-0.0121426
-0.0208636
0.0165251
-0.00771569
0.00500973
0.011245
-0.00688855
-0.034863
0.000222276
0.0348212
0.011639
0.00914478
0.0469693
0.0656361
0.0469127
0.0138568
0.0186989
0.0529303
0.0698554
0.0151799
0.0430746
0.0133836
0.0556358
0.0755279
0.0732824
0.0154595
0.0144668
0.0369779
0.0224001
-0.0175265
-0.00634028
0.00856162
0.0228156
0.00612765
-0.0237639
-0.0107762
0.020895
0.0094442
0.023781
0.0384924
0.0354369
0.0212444
0.0758014
0.0365001
0.0368733
0.0659317
0.0502724
0.0544253
0.0367898
0.0415847
0.026547
0.0580637
0.0550355
0.0245656
0.0128068
0.0173557
-0.00360192
0.00549327
0.0041732
-0.0356298
0.0324793
-0.0287276
0.0078792
0.0278225
-0.0232698
0.0180744
-0.0256206
0.00514712
0.0327061
0.0235231
0.0531513
0.0651124
0.0866452
0.0635045
0.0324506
0.0559889
0.0464547
0.0171907
0.0261615
0.0753652
-0.00197086
0.0234137
0.0222202
0.00615073
0.000223283
0.0326031
0.00730507
0.0316068
-0.0309492
-0.000626689
0.00929936
-0.0311609
-0.00354935
-0.0325392
-0.00315485
0.0421461
0.0204917
0.0269381
0.0611614
0.0569562
0.0799717
0.087644
0.0784128
0.0456382
0.0947588
0.0774767
0.0528131
0.0261704
0.00811525
0.00874832
0.0267617
-0.0132829
-0.0191743
0.027434
0.0330365
-0.0301078
-0.0307943
-0.0305479
0.0120692
0.0332929
0.00666429
-0.00851704
-0.00382988
0.0477513
0.0615688
0.0788503
0.0809765
0.0748976
0.0705265
0.0406562
0.070897
0.11382
0.0714216
0.0737975
0.0392918
0.0700624
0.0373125
0.0288182
-0.0109715
0.0184226
-0.0129525
0.016059
0.0155023
-0.0279408
0.00451783
-0.00479032
-0.0173225
0.00613795
-0.00702057
0.0085981
-0.0163164
0.0635832
0.0499477
0.0573136
0.017127
0.0268296
0.0736261
0.079605
0.0909464
0.0573833
0.054074
0.04976
0.076722
0.0628069
0.0421349
-0.00715582
-0.00224649
0.0341741
0.0370546
-0.0173586
-0.00487951
-0.0226545
-0.0314221
0.0118924
0.0172746
0.000398147
0.0182188
0.0153023
0.0342232
0.0398505
0.0534153
0.0666814
0.0636285
0.0307623
0.0623478
0.0456342
0.110546
0.0970465
0.0591892
0.0489007
0.0260556
0.0361482
0.0316126
0.0374042
-0.0149962
-0.00239588
0.0227803
0.00389634
0.0256891
0.0126772
-0.0342865
-0.0273217
-0.00640792
-0.00754322
0.00351977
0.0173733
0.048981
0.0147743
0.0154526
0.0726343
0.0581879
0.0468164
0.0671541
0.0294524
0.0428437
0.0845977
0.07623
0.0912533
0.0815019
0.0149852
0.0475998
0.0261775
-0.0181369
0.0374189
-0.0268828
0.0239518
0.0162959
0.0150881
0.0133246
0.018419
0.0170889
-0.0251806
0.00941311
0.0439615
-0.00135674
0.0105658
0.0642845
0.0437712
0.0724852
0.0416522
0.0508813
0.0520453
0.0687462
0.0809043
0.0615893
0.0437382
0.0274823
0.041781
0.037447
0.0112183
-0.00474641
0.0327678
0.0232124
-0.00658782
-0.011984
-0.0186915
-0.0229292
0.0202785
0.0340834
-0.0351502
0.0185091
-0.0164707
-0.0134493
0.0058535
0.0256143
0.0537803
0.0115705
0.0293415
0.0299234
0.0707107
0.0441255
0.089751
0.0968404
0.0535979
0.0396738
0.0619657
0.0281494
-0.00518973
-0.00428923
-0.00648023
-0.00261957
-0.0178864
-0.024732
-0.0309556
0.0223973
0.00198697
0.0203569
0.00130636
-0.0179789
0.040731
-0.0101618
0.0500148
0.0400826
0.0603886
0.0556978
0.050326
0.0874198
0.0691935
0.0451054
0.0499025
0.0581602
0.0639072
0.00803395
0.0425232
0.041223
-0.0116682
0.0258893
0.00588736
0.024315
-0.0110376
-0.0196746
0.0102248
-0.0270231
-0.0158903
-0.0248521
0.0108556
0.0260131
0.0178515
0.0421024
0.0456465
0.0299628
0.0756141
0.051819
0.0903431
0.0343898
0.0600311
0.0783949
0.0329836
0.0266515
0.0404875
0.0344372
-0.0105856
-0.00869947
0.0398261
-0.0209074
0.027918
-0.0221819
-0.00928083
-0.00339736
0.032209
0.00247309
-0.028695
-0.0138392
0.0325456
0.0219877
0.0244523
0.0394033
0.0521646
0.00999574
0.0166421
0.0530008
0.0874334
0.0706831
0.0526244
0.062982
0.0334974
0.0302798
0.00708892
0.0246986
0.0333583
-0.016531
0.03313
0.013813
0.0203593
0.0093
0.0221379
0.00921113
-0.00993268
-0.0212463
-0.0178697
0.0240497
-0.0317328
-0.00229343
0.0065224
0.00383051
0.0258777
0.0119945
0.00760214
0.0202399
0.0636623
0.0382581
0.0854304
0.0487293
0.0158154
0.0162107
0.0435183
-0.00943367
0.0175937
0.0190553
-0.0194208
-0.0298616
0.0273814
0.00888573
-0.02718
-0.0116134
0.0202131
0.0298177
-0.0147524
0.0177454
-0.00927493
0.024126
-0.0308774
-0.0238303
-0.0172786
0.0224386
0.01595
0.00578809
0.0137091
0.0342156
0.0026029
0.0509579
0.00859109
0.0169821
0.00471187
-0.00101406
0.0158474
-0.0281438
0.00672557
-0.0194781
0.0357729
0.0264218
-0.0354505
-0.00141802
0.0327627
0.00770265
-0.00128723
0.0119665
-0.00942479
0.0322393
-0.0159576
-0.0229561
0.0345178
0.0329053
-0.0066631
0.0281397
-0.00446662
0.0295317
0.0270457
0.0364742
-0.00964029
-0.0130677
0.0389448
-0.0100581
-0.0362794
-0.00933903
-0.0337039
0.0315923
-0.00271696
0.0314613
-0.00562522
0.0102597
-0.018467
-0.00892557
0.00189542
0.0296367
-0.0198032
-0.00885364
0.0142096
0.0244552
-0.0221994
0.0304261
-0.00863104
-0.0143828
-0.0084056
-0.00770502
-0.0221036
0.00115449
0.0250776
0.01406
0.017106
-0.000202458
-0.0154628
-0.0309323
0.0199122
0.0042497
0.0240955
0.00939861
-0.00698547
-0.0342734
0.0147372
0.00278045
-0.0118205
0.0120406
-0.0213793
-0.00634676
0.00928962
-0.0278841
0.0143623
-0.0343452
0.0170307
-0.0208668
-0.0018497
-0.00120209
-0.0330397
-0.0276168
0.0155823
0.0186892
-0.000494383
0.029125
0.0179501
0.0150677
0.00728193
-0.00711408
0.0177498
4.90476e-05
-0.0161323
-0.0282046
0.0309338
0.0115698
0.0222447
0.0308553
0.00933103
0.00375051
0.00979535
0.00865309
-0.029301
0.00135262
0.0310406
-0.00333851
-0.00165345
0.00267582
0.0249783
-0.0166969
0.0321872
0.00817787
-0.00608953
-0.0135971
-0.01974
0.0162871
0.0248955
0.0334777
0.00114553
0.00653423
-0.00785743
0.027725
-0.0137344
-0.0342058
-0.0127556
0.00202403
0.0211788
-0.022284
-0.011633
0.0131262
-0.00238371
0.00258426
0.0295931
0.0354113
0.0125464
0.0105605
0.0244072
0.035069
0.012432
0.0250363
0.00451783
0.0125659
0.0284693
0.0182257
-0.000563502
-0.0199973
-0.0254731
0.0201259
0.0322548
0.0183798
-0.0224954
-0.000343333
0.0285315
0.024187
0.00699637
0.035093
-0.0291637
0.00469278
-0.00228942
-0.0115059
0.0244216
0.0312749
-0.00163568
0.0322069
-0.0327993
-0.00285174
-0.0153434
-0.0236209
0.00353793
-0.00457827
-0.00640933
0.0165545
0.0136343
-0.017741
-0.0268661
0.0169716
-0.0340924
0.023932
0.0182795
-0.0116286
0.0220921
0.000182021
-0.012699
0.034354
0.0145562
0.0200975
-0.0156807
0.0126497
-0.0330382
-0.0279074
0.000974929
0.0105909
0.0347222
-0.0316157
0.0392168
-0.0166173
-0.0197828
0.0230726
0.0122384
0.0226513
0.0348512
-0.0278296
0.0278797
0.0313959
-0.0124592
0.0331638
0.0331246
0.0214512
0.00293087
0.0215297
-0.00921114
0.0153496
0.0150094
0.00657617
-0.0327321
-0.0333807
-0.0231223
0.0298263
-0.0303157
-0.0134069
0.0387898
-0.00514327
-0.0115759
-0.00784487
-0.00595077
0.0422178
-0.0074891
0.011654
0.0239561
0.0360662
-0.0175189
0.0178356
0.0295563
-0.0311627
-0.0133202
-0.0295779
0.024405
0.0315071
-0.0152508
0.00628775
-0.00960701
-0.00419538
-0.0107822
-0.0236609
-0.0150116
0.0096901
0.0411409
0.0572694
0.0321969
0.0132016
0.0605593
0.0716915
0.0591331
0.00805806
0.0528513
0.0605726
0.028758
-0.00754068
0.0218856
0.0381927
-0.0131197
-0.0306267
0.0297893
0.0059086
0.0266132
0.032451
0.0299393
0.0144571
0.0295743
-0.00118767
0.00171913
-0.0209716
0.016845
0.0276941
-0.00194311
0.0713036
0.044965
0.0451491
0.0511916
0.0827677
0.0616226
0.0858707
0.0762481
0.0248936
0.0445544
-0.00812245
0.0251631
0.039673
-0.0179056
-0.0218437
0.00844817
0.0261206
-0.0294279
-0.00424995
-0.0298089
-0.0158954
-0.0231225
-0.0262266
0.0381063
-0.010795
0.0122579
0.0711492
0.054373
0.0969946
0.0486428
0.0623559
0.106438
0.0859921
0.0961929
0.0433226
0.0556829
0.0217766
0.04949
-0.00271792
0.000833216
0.0132682
-0.00158389
0.0135274
0.00304422
-0.0054639
0.030559
0.0259533
0.00281633
-0.030487
-0.0168436
0.00131658
0.0193984
-0.00996219
0.0563219
0.0537909
0.0831797
0.0400705
0.0901441
0.0370439
0.0874241
0.0898887
0.0649612
0.0341403
0.0340455
0.0596916
0.0347022
0.0322845
0.0482877
-0.0195973
0.0314585
0.0271592
0.0295408
0.00594123
0.029887
0.00870378
0.0112806
0.0211358
-0.0211818
0.0248104
0.0346044
0.0211939
0.0337725
0.0806285
0.0465232
0.0477958
0.086001
0.0748639
0.0633532
0.0266094
0.0170441
0.0561195
0.0468932
0.0272074
0.0331876
0.0308971
0.0163528
0.0121186
0.0124812
0.00531954
-0.00136353
0.00719675
-0.0160464
0.00837594
0.00643782
0.0287831
-0.0217331
0.0200755
0.0321375
-0.000822274
0.039232
0.0485146
0.0386379
0.0961537
0.0314406
0.0108173
0.0533034
0.0360236
0.066645
0.0292473
0.0260487
0.0403414
0.0458012
0.00915326
0.0268422
-0.00579534
0.0186559
0.0272847
-0.00686991
-0.00808458
0.0073072
0.00229626
-0.0139635
0.0310404
0.0251941
0.00603106
-0.00231145
0.0168654
0.0703606
0.0996351
0.0375688
0.0628551
0.0396247
0.00761263
0.0539136
0.0177235
0.00587106
0.0283842
0.0813973
0.0636844
0.0145551
0.0540741
-0.00894102
0.0302624
0.0253096
-0.0243073
0.0309263
0.0239625
0.0199361
0.00293623
-0.0116695
0.00868341
0.00482513
0.0441019
0.012079
0.0857609
0.05727
0.0444787
0.0683479
0.0793448
0.00812653
0.0367939
0.0445215
0.0263458
0.0457783
0.085052
0.0428037
0.075069
0.00899101
0.021761
0.00488928
-0.00152009
-0.0344172
-0.0217123
0.016783
-0.0196071
0.0094858
0.0122941
0.00547092
0.0269422
-0.0176432
0.00962345
0.07289
0.0858742
0.0908404
0.0570597
0.0640813
0.0734076
0.0507752
0.0260555
0.068281
0.0541305
0.0397251
0.0513336
0.0410317
0.0186171
0.00426554
-0.00829106
0.00430632
-0.0157777
-0.0217595
0.0194593
-0.0211812
0.0116265
-0.000992942
0.00262991
0.0320791
-0.0251129
0.00305424
-0.00168214
0.0702303
0.0593681
0.067577
0.0856399
0.0585849
0.0541287
0.0583579
0.0689952
0.0501026
0.0415203
0.0674314
0.0539893
0.0563116
0.0331105
0.0477074
0.0287409
0.014909
0.0271948
0.0169311
-0.0194832
0.00714024
-0.033421
-0.0231341
0.0106215
-0.0114931
0.0381792
-0.000162957
0.0555807
0.0402126
0.0556832
0.0332503
0.083794
0.0267655
0.0725459
0.040853
0.052923
0.0469236
0.041838
0.0664762
0.0672111
0.0673815
0.016207
-0.0035887
0.059161
-0.0134533
0.0146479
0.0309533
-0.0136129
-0.00937681
-0.00514346
0.00984549
-0.032281
0.00643777
0.00428056
0.00701993
0.0437221
0.0432427
0.0639984
0.0226498
0.0565156
0.0540232
0.0685968
0.0903995
0.0985708
0.0994367
0.073162
0.048989
0.0584487
0.0250506
0.0657109
0.0210481
0.0277197
0.0379665
-0.0204539
0.000926579
-0.0338727
-0.00220061
0.0022987
0.0104035
-0.00340847
0.0306346
-0.00595702
0.0466018
0.0523403
0.0100813
0.0673876
0.0255547
0.0312407
0.0679223
0.0280826
0.024851
0.0212904
0.0230213
0.0698442
0.0483003
0.0844391
0.0665007
0.00409317
0.0350056
0.0531441
0.00249856
-0.0242845
0.0167278
0.0144011
-0.0307398
0.0291223
0.0219199
0.0107189
0.011156
-0.0172501
-0.00928482
0.063637
0.0542272
0.0240384
0.0133395
0.0093232
0.0467972
0.0210038
0.0525375
0.0589104
0.0384421
0.0949005
0.0645313
0.0292893
0.0314487
0.0373584
0.0467194
0.0409242
-0.0206927
0.0271527
-0.0215564
0.0337589
-0.00385514
0.0126685
-0.00706394
-0.0100726
-0.00351659
0.0278043
0.0215105
0.0356622
0.06292
0.0235966
0.0398393
0.0704908
0.0514405
0.0505903
0.0192609
0.0664141
0.0312228
0.0790981
0.0643257
0.0344263
0.0453446
0.061349
-0.00262511
0.0103683
-0.0110341
-0.0152107
0.0300053
0.0305283
-0.00502792
0.00398812
-0.0243745
-0.0168411
-0.0265558
0.026612
0.0336302
0.0043408
0.0416301
0.029523
0.0737781
0.0378656
0.089816
0.0742615
0.0623231
0.054791
0.03889
0.0790545
0.0117872
0.0281845
0.00244836
0.00220822
0.0142721
-0.0242373
-0.017707
-0.00694022
0.0202524
-0.0272083
-0.0180571
0.014578
0.00521322
-0.00299708
-0.0217019
0.0205845
0.0454215
0.016936
0.0155783
0.0246416
0.0286558
0.0898852
0.0518927
0.0697377
0.0915675
0.0756145
0.0573373
0.0560066
0.0292619
0.0653565
0.0199609
0.0403113
-0.0171531
0.00409818
0.00786311
0.0115091
0.0333185
0.0117812
-0.028743
-0.00894519
0.024187
0.0355832
-0.0317657
-0.0168521
0.0110749
0.0491065
0.00970676
0.0806232
0.0506251
0.0558423
0.0668204
0.0914639
0.0609898
0.0478571
0.0523846
0.0199011
0.0295693
0.00696422
-0.015126
-0.015487
0.0373715
-0.0257625
-0.0207924
0.00304094
-0.00502574
-0.0248475
-0.0136908
0.0226654
-0.0348925
0.0217258
-0.0225342
0.00829728
0.00765368
0.0185382
0.0103209
0.0595316
0.0447205
0.0836743
0.0874683
0.0650715
0.0550312
0.0279974
0.0625113
0.0205666
0.0311047
0.00917847
-0.0312255
0.0182146
-0.0235235
0.0195504
0.0132886
-0.0076167
-0.0310493
0.00497561
-0.00599798
-0.00631842
-0.00122401
0.00789012
-0.0244657
-0.00980995
0.0209085
-0.031918
0.0280189
-0.0162085
0.0458109
-0.00167416
0.0629073
0.0518221
0.0468514
0.00346895
-0.0182024
0.0469125
0.0328062
-0.0125973
-0.0257228
-0.00284974
-0.0170751
0.0112812
0.0169897
0.0195878
0.00690699
0.0345546
-0.0346876
-8.61058e-05
-0.00992615
-0.0218022
0.0237118
0.0218174
0.0234616
0.00918858
-0.0360009
0.0257892
0.0211702
-0.0167802
-0.0254799
0.00972884
0.0351847
-0.0031107
0.0121881
0.0326468
0.0266261
0.0285297
-0.021739
-0.0212572
0.0128756
0.00248796
-0.0213032
0.0126074
0.0231036
-0.023108
0.0152669
0.0270514
0.0254317
0.00718384
0.00410801
0.0324597
0.0316095
0.0354133
0.00841675
-0.00893901
0.0164711
0.0107752
0.0183625
0.026376
0.0268001
-0.0191059
-0.0180218
0.0074905
0.0314368
0.0282943
-0.0292092
-0.0355245
-0.0198011
0.0236333
-0.0177171
0.00600888
-0.0138107
0.0332902
-0.0317752
-0.004217
-0.0172048
0.00518052
0.0174359
-0.0251723
0.0301599
0.0302711
0.00718384
-0.031954
-0.0236836
-0.0252313
0.000692001
-0.0212587
-0.017568
0.0205423
-0.0079758
0.0128976
0.0302961
-0.0270666
-0.00849418
0.0104205
-0.00527643
0.0168735
-0.019291
0.0248214
-0.0294994
-0.00520232
0.0160015
0.0286166
0.00802964
0.0302602
0.0097147
-0.0283484
0.018685
-0.000774952
-0.0320935
-0.0304128
0.00401863
0.0300313
-0.000532984
0.0354941
0.01276
0.0341469
0.0184517
0.0174838
-0.0203504
0.0200147
0.0258045
0.0125333
-0.00699419
-0.0221096
0.0351628
-0.00923512
0.00213303
0.0165029
0.0289762
-0.0281849
0.0114978
-0.0319627
0.00959262
-0.0124156
-0.0128995
-0.000583122
0.0315485
0.0300749
0.0218981
0.0177738
-0.00615435
0.00406407
-0.0144448
-0.0206102
0.0069046
0.0266555
-0.00760291
0.033943
-0.0253716
0.0266989
-0.0191982
-0.0323834
-0.0218371
-0.0325055
0.0279233
0.0230513
-0.0266045
0.0274656
-0.0226633
-0.0121213
-0.0348489
-0.0115262
0.000458868
-0.016417
0.00255658
-0.00454463
0.0300832
-0.00867241
-0.0391016
-0.0347354
-0.0299657
-0.019457
-0.0340959
0.0224719
-0.0083604
-0.0365086
-0.0140059
0.0172894
0.000461667
0.0197782
-0.0341095
0.0294987
0.0140483
0.0111076
-0.00488187
0.0290351
-0.0151165
0.00533965
-0.00954902
0.0142213
-0.0286836
0.0100849
-0.00211046
-0.0358739
-0.00511245
0.0167368
-0.00481393
-0.0248945
0.0064975
-0.0454418
0.00340023
-0.0189731
-0.000793719
-0.0298667
-0.0398801
0.0230379
-0.0218892
-0.00314177
-0.0204871
0.00214536
0.00224852
-0.021388
-0.0199733
0.00117387
0.0204311
-0.0120299
0.0106303
-0.0152851
0.0197925
-0.0238156
0.0230677
0.016322
0.0163967
-0.00868379
-0.018575
-0.0036223
-0.000946011
-0.0180407
-0.0496755
-0.062313
-0.0103743
-0.0190218
0.000807086
-0.00129263
-0.0192039
-0.0235239
0.0114303
0.000249101
-0.011953
0.0322003
0.00858769
-0.0342974
-0.0211352
-0.0227679
-0.0269202
0.0215717
-0.00163991
-0.00124541
0.0354566
-0.0246821
0.0243848
-0.00134878
-0.0205547
-0.00803267
-0.00423749
-0.044487
-0.0368702
-0.0581609
-0.0240526
-0.0171265
0.0137122
0.0332201
0.039683
0.00889187
0.00467735
0.0126821
0.0195626
-0.0259268
0.0147741
-0.00838496
0.00472492
0.0206381
-0.0294841
0.0340133
0.0068235
0.0271191
0.0164229
-0.011584
0.00114085
-0.0303742
0.00113825
-0.0152699
-0.0256036
-0.00660581
-0.00967361
-0.031769
-0.015318
0.0252375
0.0241817
0.0420583
0.020379
0.0342104
0.0324497
0.018661
0.0240262
-0.00861558
-0.00460088
0.0225804
0.000687703
0.0294708
0.014113
-0.00375809
-0.00967165
0.0298891
-0.0227095
-0.0368056
0.030048
-0.0109029
-0.0231851
0.0143123
-0.0257854
0.0159446
-0.0123584
-0.0110873
0.0264821
0.00403848
0.0171388
0.00328824
-0.0284049
-0.0179685
0.0116926
-0.0124239
-0.0240553
0.0341984
0.00842098
-0.0203373
0.0249247
-0.0268883
0.0212109
0.0190158
0.00629958
-0.0163272
0.00490199
0.0228491
0.0144116
0.0126684
-0.0201847
-0.000197326
-0.0525764
-0.0228639
0.0256893
0.0269133
-0.00837114
-0.00915573
0.0417784
-0.0200942
-0.0293186
0.0101527
0.00828426
0.0130288
-0.01205
0.00719046
0.021239
0.0299385
-0.0232764
-0.00992125
0.0308136
-0.00113574
-0.0190483
-0.00556988
0.00621204
0.0219477
-0.021291
-0.0313328
0.0211931
0.00233425
-0.0419333
0.0112412
0.00111266
0.0181499
0.0307868
0.0107855
-0.014313
0.0273903
-0.00834097
-0.0373121
-0.0197531
-0.0228155
-0.00116338
-0.000925384
-0.0104571
0.0187923
0.0036855
-0.0229376
0.008971
0.0270398
-0.0157302
0.00728903
0.0235147
0.0139293
0.0251209
0.0148797
-0.0108558
-0.0477452
-0.00493688
0.00528147
0.0370751
-0.00434117
0.00281107
0.0357508
0.0345309
0.0229762
0.0220786
0.0183494
0.0164643
-0.0280532
0.0118028
-0.0298312
0.0136066
0.0279418
0.0344737
0.0202751
-0.0251868
-0.0257021
0.0287473
0.00170979
-0.0317102
0.0255182
-0.0132491
0.0167777
-0.00662895
-0.031553
0.0105914
0.0576952
0.0355638
0.0364311
0.0192849
0.0282836
0.00534853
-0.0212612
-0.0411912
0.00315202
-0.0403103
0.0061678
-0.0168474
-0.0288324
0.0249052
-0.014905
0.0108511
0.0107244
8.80034e-05
0.0124292
0.0128379
-0.0192637
0.0215522
0.00728711
0.00162144
-0.0163578
0.00967059
0.0261346
0.0142732
0.0567724
0.0296861
0.0618781
0.0606888
0.0244961
0.0180305
-0.0115504
0.00137017
-0.00208426
-0.0373884
-0.0239696
0.0110634
0.0220713
-0.00795343
0.00275048
0.00682088
0.0286519
-0.0291779
-0.0233815
0.015573
0.0129649
-0.0288392
0.0306276
-0.0216754
0.0350662
0.0233958
-0.00497761
0.0648928
0.0316572
0.0296278
0.00682654
0.0363894
-0.00843199
0.00544395
-0.0311493
-0.0560869
-0.0637812
-0.0118393
-0.0345549
0.0143041
0.0279766
0.026707
0.0139045
0.0258394
-0.0220298
-0.03048
-0.00821719
0.0154505
-0.00355419
-0.0121014
-0.0179847
-0.00925684
0.0302198
0.0127095
0.0169956
0.0736718
0.0882719
0.0632852
0.029522
0.0252976
0.0468896
-0.0173079
-0.02669
-0.00119187
-0.00985718
0.00420939
-0.00689219
-0.017081
-0.00881649
0.0229161
0.0248192
0.0195046
-0.0142946
-0.00926957
-0.0222668
-0.000716418
-0.0104668
0.0290597
-0.0188508
-0.0174237
-0.00769392
0.00605196
0.0547721
0.0130415
0.0392802
0.0480091
0.0359806
0.0629806
0.0210389
-0.0124487
-0.0220588
-0.0118051
-0.0112557
-0.013364
-0.0387987
-0.0227254
-0.0332385
-0.00405698
-0.0177454
-0.0087599
-0.0254295
0.00229728
-0.000920797
-0.0349647
0.0178881
-0.0217722
0.0168229
-0.00591164
-0.0436789
0.0242725
0.0374771
0.0203179
0.060605
0.021958
0.0465096
0.00243131
0.0115165
-0.00929433
-0.0415428
-0.0236918
0.0048355
-0.027495
0.0176817
0.0309568
0.0276953
-0.0329332
0.00303768
0.0129802
-0.00259178
0.00617154
-0.025871
-0.0468307
-0.0126453
-0.0510467
-0.0589507
-0.0500917
-0.000211506
-0.0342003
0.00568392
0.00389829
0.0122684
0.0273919
-0.00659424
-0.00776515
0.0146349
-0.0380156
-0.0688667
-0.0155294
-0.0330354
0.00720295
0.00826964
-0.00426789
-0.0353256
-0.00976172
0.0350996
0.0187809
0.0257105
0.0170236
-0.0368445
0.012879
-0.00382616
-0.0520603
-0.0327495
-0.0350118
-0.030053
-0.0503542
-0.0120698
0.0213987
-0.00694901
0.0151006
0.0353179
-0.0433968
-0.0495811
-0.0693967
-0.0108128
-0.00366684
0.0134127
-0.0396371
0.0226553
-0.0196264
-0.00515748
0.0237358
-0.0164702
-0.0107872
-0.00587731
-0.00705986
-0.0169758
0.0204778
0.0125975
-0.0661796
-0.0356039
-0.061167
-0.027746
-0.0858405
-0.0550177
-0.0223415
0.0245115
-0.0259419
-0.020322
-0.00445753
-0.0389282
7.92205e-05
-0.00726547
-0.00227448
-0.0188768
0.027572
-0.0155091
0.00342623
-0.0137201
0.0285795
0.0136429
0.0332139
0.0114392
-0.0208705
0.0260019
-0.0132725
-0.0468558
0.00738868
-0.0511329
-0.0315227
-0.0809104
-0.0656541
-0.0409463
-0.0292249
0.0100907
0.0166769
-0.0415889
-0.0201244
0.000617162
0.0080851
-0.0169423
-0.0288043
0.00397934
0.0122123
-0.00403435
-0.00898375
-0.0286657
-0.00326588
-0.00685468
-0.0187809
0.03572
0.00450135
-0.0205573
0.0121417
-0.00213691
-0.0216046
-0.0455841
0.00631609
0.00246585
-0.061451
-0.0595233
-0.0246205
0.0175574
-0.0345455
0.00721695
-0.00218015
-0.0333356
-0.000140997
0.0071629
-0.00817728
0.0202629
-0.0109161
-0.00998981
-0.0273484
0.0290118
0.00509332
-0.000275757
-0.00366549
-0.0037276
-0.0109351
-0.00506221
0.0240981
-0.0117383
-0.00861711
0.00869138
-0.0289697
-0.00633174
-0.0279976
0.00244277
0.0196438
0.00233471
0.0218451
0.0553282
-0.00910274
0.0311662
0.0217754
0.0159427
0.0249957
0.0111137
-0.028643
0.0336224
0.0355709
0.0213679
-0.00151394
-0.00100384
0.031579
0.0200549
-0.0143719
-0.00294826
-0.00479909
0.013145
0.0126232
0.0161254
0.0126045
0.0355528
0.0138315
0.0265155
0.0351841
-0.00405694
0.0432157
0.00953308
0.0192111
0.0220768
-0.00771658
0.0287267
0.000655523
-0.00527873
0.0242823
0.0170794
0.0105014
-0.0169592
-0.031082
-0.0237576
-0.00288073
0.0280018
0.0244241
-0.0185032
0.0283657
-0.0156582
-0.0133778
-0.00902491
-0.00808237
0.00505013
0.00187988
0.00473602
0.0466116
0.0385553
0.0326581
0.0328537
0.0107193
0.0488567
-0.0223431
-0.0224596
0.020634
-0.0166721
-0.0215185
0.0344605
-0.0256781
0.00185182
0.0200779
-0.0159296
-0.0344107
0.00484045
0.0155871
-0.0343156
0.0326947
0.0325053
-0.030558
0.0264191
-0.014917
-0.00397905
0.00422821
0.00835339
-0.0139237
-0.0284103
-0.0107474
0.00174537
0.0270269
0.00397235
0.0182698
-0.0277459
0.0155409
-0.000788899
0.0259641
-0.0246381
0.0346331
0.0336608
-0.0155982
0.0322395
-0.006386
-0.0132418
-0.0216976
0.0323812
-0.0051962
-0.00582973
0.0170514
0.00658478
-0.0103193
0.000851292
0.0283005
0.0131555
0.0328542
0.00589036
-0.0143332
0.0295613
0.0208949
0.0221889
0.0262178
-0.00869524
-0.0127404
0.00262061
0.0118968
-0.0266307
-0.0236813
-0.0105147
0.0101659
-0.00392926
0.0305152
0.00702471
-0.00957954
0.022672
-0.00649717
0.0121653
0.0110839
-0.0164521
0.0090831
0.0229173
-0.00482474
0.00125871
-0.00391836
0.0181296
-0.0343764
0.0130476
0.0128076
-0.0270803
0.0272562
0.0212231
0.0091392
-0.00989345
-0.0302951
0.0287146
0.0266372
-0.0327409
0.000249598
-0.0302471
-0.00764162
-0.0284378
-0.0210589
-0.0291637
0.0131393
-0.026574
0.0146783
-0.0336586
-0.0330396
-0.0258742
0.0194152
0.00879042
0.00962968
0.0304215
0.000349873
0.00839804
0.00790974
-0.000238698
-0.0238709
0.0291157
0.0174773
0.00828251
0.0103578
0.0184081
0.0310624
-0.0347617
0.0343344
0.0265805
-0.0277119
-0.0167013
0.0237162
0.00714024
0.0177803
0.0283048
-0.0133006
-0.0316858
0.00868143
0.0150554
-0.0286798
-0.00419731
0.0341972
0.0299137
-0.0225032
-0.0124739
0.0197291
-0.0318559
-0.0148843
-0.0171685
-0.0263429
-0.0188637
-0.0268312
-0.0165247
0.0110205
0.0213858
0.0133072
0.0267702
0.02243
0.0232475
0.0195635
-0.0307441
0.0351039
0.00737043
0.0159794
0.0166336
-0.00857474
0.00389317
0.0187383
-0.0209604
-0.00856342
0.00988602
0.0250167
-0.0139532
0.0133983
0.0259767
0.00670171
0.00882638
0.00996615
0.0124726
0.00903025
-0.0227723
-0.0327366
-0.0271822
0.0147611
0.00633586
-0.0216627
0.00392054
0.00708792
0.00808632
-0.0271342
-0.00117195
0.0105826
-0.0238222
0.0174713
0.00720704
0.0195986
0.0289299
-0.022131
0.000825626
-0.0140981
-0.0189161
0.025165
-0.00819355
0.0274674
-0.0142973
-0.00546626
0.000574586
0.0131721
0.00797733
-0.0286427
-0.00608517
0.0269816
0.0019303
-0.0244333
0.0321654
0.0181204
0.0067525
-0.00417543
0.0300084
-0.00111444
0.0227027
-0.00269205
-0.0146991
0.0188809
0.0104779
0.0176576
0.0216497
-0.0398167
0.0202712
0.0187921
-0.0431536
-0.0401488
-0.0357581
-0.0114898
0.00758099
0.00341953
0.00255705
-0.0195074
-0.0356881
-0.0211809
-0.012021
-0.0135557
-0.0315659
0.0318039
0.0248683
-0.0304903
-0.0241294
-0.0277083
0.0266942
0.0110856
-0.0350866
-0.043032
0.00277424
-0.0420003
-0.0418676
-0.0223769
-0.039093
-0.0393507
-0.0111434
-0.0140583
-0.0263518
-0.0340276
0.0158836
0.000686526
-0.0345516
-0.01048
-0.0317926
0.0186065
-0.00467042
0.0266546
-0.0232627
0.030139
0.0158071
0.0131526
0.000782587
-0.0216363
-0.0360692
-0.0351041
0.0137355
-0.0112914
-0.0710536
-0.0356493
-0.0565162
-0.0486147
-0.051134
-0.00778222
-0.051164
-0.0446306
-0.035029
0.0162468
-0.0108268
0.0284818
-0.0169172
0.0269785
-0.0236969
0.0309077
0.0163089
0.0025511
0.00940726
0.0347031
0.029053
0.031709
-0.00274665
0.00359871
-0.00416995
-0.0569846
-0.00178375
-0.0298619
-0.0482915
-0.0585862
-0.11114
-0.0668432
-0.0529511
-0.0655941
-0.0454444
-0.0335795
-0.0352457
-0.0420842
-0.0238117
0.0252035
0.0141094
-0.0341263
0.0119697
-0.0128581
-0.0203351
-0.00831055
-0.00762144
-0.0294902
0.00208158
-0.0365493
-0.00769115
-0.0276722
-0.033516
-0.00405883
-0.0782001
-0.0859222
-0.0504583
-0.0875568
-0.0570864
-0.0981285
-0.0798873
-0.0722298
-0.0305925
-0.0388047
-0.00911555
-0.0049556
0.0123481
-0.019459
-0.0101901
0.0111283
-0.00727767
-0.0239689
-0.0282403
-0.00109351
0.0122385
0.024339
-0.00188734
-0.00754768
-0.0265784
-0.0439139
-0.00244825
-0.0694734
-0.0402782
-0.0261711
-0.0792461
-0.0286652
-0.0138461
-0.0517619
-0.030298
-0.0520399
-0.0307473
-0.00764269
-0.0585454
-0.0516095
-0.0202552
0.00362737
0.0200533
-0.0128896
-0.011236
0.00983055
-0.0125442
-0.0195766
-0.0149575
-0.0140493
-0.00457413
-0.0286693
0.0253408
-0.0260451
-0.0628028
-0.0352899
-0.0222234
-0.0343716
-0.0297985
-0.0339658
0.0019543
-0.0565723
-0.0384427
-0.056542
-0.0767574
-0.0594417
-0.0418361
-0.00424994
-0.0327151
-0.0233504
0.021431
-0.0150821
-0.00123213
0.0238015
0.0299427
0.035476
-0.0346602
0.0301727
0.00254547
-0.0327516
-0.0288189
0.00202429
-0.0138489
-0.0675392
-0.0821623
-0.073802
-0.0634023
-0.0332907
-0.0181244
-0.068154
-0.0753508
-0.0309069
-0.0557027
-0.0379022
-0.0423018
0.0113996
-0.031036
0.0105812
0.0334011
8.40094e-05
-0.00408834
0.022029
-0.0142249
-0.0135143
0.00378375
-0.0137037
-0.0222912
0.014095
0.0225238
0.00992887
-0.0170411
-0.0595815
-0.0779556
-0.00371037
-0.0645243
-0.0632586
-0.0175216
-0.0293886
-0.0777619
-0.0379874
-0.0757862
-0.0436693
-0.0277896
-0.00168156
-0.0142913
-0.00938412
-0.0118718
-0.0063215
-0.00010988
0.001283
0.0229709
0.0330483
-0.00221329
-0.00683178
-0.0355937
-0.0236158
-0.00282193
-0.057896
-0.03164
-0.0150746
-0.0427814
-0.0595166
-0.0657479
-0.0159641
-0.0546007
-0.068894
-0.104466
-0.0631444
-0.0708634
-0.0720579
-0.00556655
-0.0417157
0.0290469
-0.0365977
0.0135088
-0.0214714
-0.0273237
0.0345917
0.00987165
-0.013608
0.0148786
0.0241069
-0.0159481
0.0005626
-0.0270548
-0.0575459
-0.028136
-0.0232427
-0.0493547
-0.0496919
-0.074909
-0.0211673
-0.0301458
-0.0842608
-0.0453508
-0.0845782
-0.042212
-0.043038
-0.0285074
0.0134007
-0.00769715
0.0279816
-0.0221338
0.00978214
0.0243612
0.00342134
-0.0117202
-0.0160822
0.0330461
0.0103311
-0.0301516
0.00571197
0.0148732
-0.0180334
-0.0402934
-0.015923
-0.0745382
-0.0352624
-0.0431913
-0.0537616
-0.0950786
-0.109751
-0.0993096
-0.0404429
-0.0773915
-0.0649652
-0.0225467
-0.0358861
-5.61713e-06
0.0332527
0.0341674
-0.031304
0.0131695
0.00298316
-0.0156505
-0.0238426
0.00660181
-0.00737405
-0.0191951
0.0233491
-0.0420923
-0.0519775
-0.009082
-0.0576452
-0.0404852
-0.0868979
-0.0468052
-0.0992584
-0.0978317
-0.0970443
-0.082656
-0.0790879
-0.0679701
-0.00929076
0.0177569
0.0197979
0.00516424
-0.0194465
0.018775
0.00912595
0.0200672
-0.019084
-0.0235941
0.0286384
-0.0126138
0.0342915
-0.00868691
0.0290298
-0.00316736
0.00355633
-0.0541141
-0.0423457
-0.0260411
-0.0419762
-0.0588717
-0.0401748
-0.0690274
-0.035933
-0.052085
-0.0746394
-0.0581094
-0.0111433
0.0227294
0.0210961
0.0204287
-0.013348
0.016064
-0.00674578
-0.00072252
-0.00891251
0.0175187
0.0167361
-0.00441037
0.0289369
-0.00433398
-0.0221123
0.0283735
0.00833126
-0.0329767
-0.0566161
-0.00961576
-0.00987072
-0.0491796
-0.0714671
-0.0684207
-0.051637
-0.0473064
-0.042943
-0.0457053
-0.00583115
-0.0077222
0.0284136
0.00618087
-0.0362725
0.0246673
-0.00743951
0.0132091
-0.0201041
-0.025205
-0.0297893
0.0128934
-0.00261634
0.000847179
-0.0196246
-0.00849186
-0.00084831
-0.036374
-0.0360118
-0.0328086
-0.000836767
-0.0731044
-0.0652487
-0.0339552
-0.0295138
-0.049334
-0.0550409
-0.00564194
-0.0479632
-0.0247983
0.0214416
-0.0404441
-0.0180999
0.0338863
-0.0287824
-0.00402953
-0.0132418
0.0261162
0.00272378
0.00646909
0.00600975
0.00527306
0.0326921
-0.00606984
-0.0386061
-0.00653257
0.000392355
-0.0379584
-0.0616184
-0.026483
-0.0586391
-0.0627717
-0.0883283
-0.0691262
-0.0453253
-0.0426177
-0.0214376
-0.0253663
0.0251061
0.0105321
-0.0229098
0.0116303
0.0138038
0.0254187
0.0333863
0.0191362
0.0115567
-0.000584718
0.0194855
-0.0210725
0.0257322
-0.0219043
0.0124099
-0.0270727
-0.0352574
-0.050165
-0.0473361
-0.0779233
-0.0474291
-0.0715555
-0.0198883
-0.0683514
-0.0334299
-0.0345081
-0.0241237
0.0196685
0.0112001
0.00867736
-0.0118685
-0.00427641
-0.00260201
-0.0235418
0.0120385
-0.0239036
0.0114194
0.0247103
0.0289564
-0.000933609
-0.0322693
0.0313454
-0.0193821
-0.010768
-0.00737995
-0.00038567
-0.0659513
-0.0408546
-0.0334093
-0.0483881
-0.0111388
-0.053849
-0.0565775
-0.0357392
0.0279672
-0.00263037
-0.0152064
0.0245488
-0.0266183
-0.0286218
0.000524231
0.0355508
-0.00973431
-0.00781165
0.0018758
-0.0216953
-0.0159064
-0.0147766
-0.0121529
0.0107114
-0.0126679
0.00648284
0.014516
-0.0604414
-0.0541578
-0.0159521
-0.0692733
-0.0299784
-0.0596501
-0.013919
-0.0461551
-0.0480442
0.0207568
0.0170298
0.0227532
-0.00338472
0.0249247
0.0240772
-0.00890159
0.020588
0.0280149
0.0252203
0.0179373
-0.00588898
0.0163336
-0.0222927
-0.0244107
-0.0295339
-0.00601054
-0.0399693
-0.0449968
-0.0168211
-0.0225381
-0.00573994
-0.0452014
-0.0330104
-0.00844427
0.00121447
-0.0475662
0.0173304
0.0236424
-0.00648638
0.00512903
0.00868542
0.0319526
0.0344977
0.014602
-0.0139154
-0.00397504
-0.0327409
-0.0223276
-0.00062018
-0.0219025
-0.0190003
-0.0208221
0.0263659
0.0233142
0.0171758
0.000279951
-0.0322836
-0.0401431
0.00486547
0.0160992
0.00702366
0.0178238
-0.0254585
-0.0305206
-0.017565
0.0228328
0.0319981
-0.025493
-0.0248834
-0.0240652
0.0266285
-0.0037941
-0.0135775
-0.00854409
-0.00402517
-0.0235984
0.00179296
0.00114989
0.0284051
0.00776798
0.0107016
-0.0177867
0.0186114
-0.00845501
-0.0377351
-0.0195303
-0.0255743
-0.0064418
-0.00993762
0.0267405
-0.00818295
0.0167436
0.00720186
0.00626555
-0.0250593
-0.0121017
0.0226654
0.0315071
0.0240737
0.0207362
-0.0229423
-0.0175689
0.0248846
-0.00159241
-0.0189269
0.027156
-0.026114
-0.00142674
0.00617215
0.0309139
-0.0277582
0.019942
-0.0289942
0.0290649
0.00416332
0.017554
-0.0340218
-0.0090429
-0.0242971
0.00962542
-0.0226301
0.0135935
0.0355026
-0.0186043
0.00615057
-0.0258524
0.0189531
-0.0100199
0.0122085
-0.00818441
-0.0354113
-0.0184975
0.00782473
0.0136341
-0.027398
0.0100678
0.0166925
0.0176604
-0.00287855
0.0127033
0.00802746
0.00532657
-0.0148244
-0.0271473
0.0221946
-0.00937681
0.0252835
-0.0164636
0.025835
0.0150554
-0.00996538
-0.0286166
-0.00126761
-0.0325578
-0.0215166
0.0212376
0.0046072
0.0232824
-0.0287059
-0.00891685
0.0338396
-0.0173225
0.00443499
-9.91852e-05
0.0131676
-0.0355617
-0.0113365
-0.0218829
-0.0153802
0.0210916
-0.0194021
0.00618545
-0.00838496
-0.01185
0.0307681
-0.0119033
0.0316074
-0.00104308
-0.00116951
0.0281849
-0.0296411
0.023108
-0.0043042
-0.0134053
-0.00846562
-0.0314199
-0.0338854
0.0104057
-0.0233586
-0.0273086
-0.0259375
0.0157138
0.0319104
-0.0253968
0.0356445
-0.0109006
-0.0142925
0.0176908
-0.0290416
0.0113512
-0.000530073
-0.013229
0.00890756
0.0202066
-0.0134975
-0.0207293
0.00187798
-0.00692007
0.0206054
0.00784217
0.0099305
-0.0145715
0.0299027
-0.015208
0.0301076
0.0323398
-0.0289915
-0.0108046
0.0282765
0.0200038
0.0125333
-0.00203056
0.0183471
-0.0343998
0.0331988
-0.0256042
-0.023198
-0.0139267
-0.0412623
-0.0108112
0.0115119
0.0182175
-0.0249774
-0.0120925
-0.0117192
0.0158087
0.00393798
-0.0271124
-0.0121758
0.0067217
0.0217172
0.00899315
0.0298569
0.0307267
-0.0183166
0.0148745
-0.0188877
0.0343299
0.0344908
-0.0353826
0.00604033
0.0304843
0.0296645
-0.0185641
0.00099962
-0.0489959
-0.0268291
-0.00458177
-0.0411449
-0.00721799
-0.0573022
0.0162637
0.0191492
0.020903
-0.0131355
-0.0265324
-0.00880568
0.00227472
0.0212703
-0.0293708
0.0072209
-0.00339954
0.00719256
0.032076
-0.0125202
-0.0337264
0.00360098
0.0126408
0.00818476
-0.00482142
-0.00974323
-0.00743745
-0.0566942
-0.0580138
-0.0740901
-0.0992028
-0.0635373
-0.0820194
-0.0606662
-0.029673
-0.0295893
-0.0608158
-0.0385748
-0.00515756
0.0166818
-0.0153955
-0.0317512
0.0118183
-0.0262688
-0.025423
-0.00247963
-0.0248802
-0.00129801
0.0184504
0.02683
-0.00800373
-0.0344925
-0.0215397
-0.0656954
-0.106289
-0.0924467
-0.124786
-0.121908
-0.0945406
-0.147263
-0.105359
-0.141062
-0.0472269
-0.0584929
-0.0694342
-0.0354099
-0.0460238
-0.00738812
0.0128798
-0.0305449
-0.00983459
0.000367312
-0.00111065
0.00129381
-0.0058562
-0.00220788
-0.0168035
0.00193558
-0.0209103
-0.0589257
-0.0262747
-0.0560219
-0.0750324
-0.11173
-0.134516
-0.126943
-0.161462
-0.163381
-0.146455
-0.0917469
-0.126513
-0.0773134
-0.0551728
-0.0140985
-0.00583542
-0.0261797
-0.0318972
0.00136572
0.00293087
0.0290024
0.00728197
0.0223451
0.0192916
-0.0237921
-0.000290885
-0.0302642
-0.0197041
-0.0139759
-0.057528
-0.0643634
-0.0879921
-0.155535
-0.118112
-0.148812
-0.0944536
-0.124217
-0.133639
-0.145753
-0.118951
-0.104232
-0.0977174
-0.0627717
-0.0270377
0.0229791
-0.0208157
0.0156441
-0.00721
0.0104297
-0.0105994
0.0298967
0.00689998
0.00702299
-0.0248687
-0.024633
-0.0055528
-0.0130995
-0.0658916
-0.0950692
-0.132649
-0.123238
-0.126328
-0.0650045
-0.0793657
-0.0717773
-0.113441
-0.116574
-0.112838
-0.0769089
-0.0787125
-0.0785476
-0.0142493
0.0102355
-0.0238059
-0.032134
0.0312259
0.00962755
0.0192608
0.030813
-0.000856834
0.0256262
-0.0236491
0.0195163
-0.00973347
-0.0828907
-0.0614239
-0.0747103
-0.081548
-0.100116
-0.0942653
-0.0679475
-0.0654766
-0.094414
-0.124988
-0.0931459
-0.113362
-0.0750725
-0.058727
-0.0265427
0.0150415
0.0239052
0.00755708
0.00293523
-0.0174119
0.0259854
-0.000114459
0.005279
0.024793
0.00913583
-0.0111142
-0.0342291
-0.0127314
-0.0838809
-0.101738
-0.0696146
-0.0952868
-0.0635765
-0.0880928
-0.0535098
-0.0675697
-0.0871094
-0.100155
-0.0561608
-0.0847292
-0.0728149
-0.0584368
-0.0439747
-0.0207826
-0.0115565
0.00797623
0.0157007
0.00205673
0.0262841
-0.0159797
-0.0284705
0.0351932
-0.0243382
0.011818
-0.0389698
-0.0738438
-0.0622637
-0.103871
-0.135262
-0.0826875
-0.0806625
-0.097516
-0.0899352
-0.0991816
-0.127471
-0.0809062
-0.0535107
-0.0619556
-0.083529
-0.0187185
-0.00787991
-0.0413995
0.0114443
0.000475833
0.0167841
-0.000910105
0.0096384
-0.0296237
-0.0190468
-0.0175691
-0.00644125
0.0271742
-0.000561678
-0.0469416
-0.0918205
-0.117549
-0.0999497
-0.0756889
-0.0842921
-0.0868764
-0.0982042
-0.120383
-0.112762
-0.0827045
-0.0625885
-0.0538129
-0.0492851
-0.0357187
-0.00886861
-0.00616343
-0.0322082
-0.0352635
-0.0265195
0.0195874
0.0307114
-0.0320739
0.0234938
0.0253553
0.0243586
0.00579545
-0.0633448
-0.0486452
-0.0730537
-0.123427
-0.0984489
-0.122729
-0.132729
-0.134016
-0.130381
-0.149929
-0.130608
-0.111285
-0.116119
-0.0730445
-0.0643475
-0.011536
-0.0281202
-0.010225
-0.0257531
-0.0309666
-0.026101
0.0355181
0.00041963
0.0134183
0.00182784
0.0242371
0.0313981
-0.0410171
-0.0556112
-0.0435666
-0.0914352
-0.0881962
-0.114124
-0.121328
-0.103815
-0.158989
-0.139543
-0.161637
-0.121078
-0.0878146
-0.0607137
-0.043869
-0.0458018
-0.0166854
-0.0229585
0.00751584
-0.0101761
-0.0134707
0.00721872
0.0237837
-0.0238339
0.0060285
-0.0314613
0.0353087
0.0278098
-0.00562117
-0.0435812
-0.0899852
-0.0403363
-0.0684767
-0.111392
-0.0958149
-0.0921843
-0.0852655
-0.113741
-0.152379
-0.104884
-0.0983315
-0.124449
-0.0846726
-0.0320176
-0.0723495
0.00601131
-0.0170318
-0.0047867
-0.00593909
-0.015389
-0.0340423
-0.0248889
-0.0270645
-0.000995121
-0.0312435
-0.0197351
0.0125742
-0.0108135
-0.0494497
-0.0386628
-0.0921821
-0.0785392
-0.0759852
-0.0959694
-0.104455
-0.085818
-0.117945
-0.094185
-0.10219
-0.114854
-0.0844315
-0.0772703
-0.0506426
0.00982069
0.0176864
-0.00795261
0.0338483
0.0164331
0.00777677
0.0224889
-0.0131698
-0.034341
-0.0283871
-0.0253263
-0.0179878
-0.0342101
-0.0668659
-0.0322912
-0.0291614
-0.0546337
-0.0637461
-0.0922175
-0.0775669
-0.0993907
-0.134962
-0.148659
-0.141575
-0.100164
-0.053133
-0.0194815
-0.0240999
0.0135485
-0.0408421
-0.0262752
0.0243221
-0.00295921
-0.0185236
-0.0314962
-0.0079577
0.0149704
-0.0123371
0.00472771
-0.0270529
-0.0524244
-0.0252279
-0.0710032
-0.086332
-0.0918105
-0.113177
-0.0977978
-0.124383
-0.120915
-0.127758
-0.102749
-0.0805151
-0.0797074
-0.0706753
-0.0422942
-0.00197718
-0.00795679
-0.0328208
0.0239727
0.015027
0.0128494
0.0298569
0.000110085
-0.0254448
0.0127426
-0.0164157
0.00423639
-0.0451443
-0.0381186
-0.0756388
-0.0610223
-0.0805128
-0.124211
-0.0974446
-0.127183
-0.13897
-0.11356
-0.113251
-0.0879074
-0.0821996
-0.0956316
-0.0354146
-0.0660166
0.00459421
-0.0104087
0.00937222
-0.0259311
0.0299027
-0.0179024
0.0351432
0.024017
0.0183384
-0.0266198
0.0103011
0.00484593
-0.0350918
-0.0427177
-0.0769404
-0.0889727
-0.0966906
-0.0966756
-0.116946
-0.107155
-0.152676
-0.143477
-0.108108
-0.0915573
-0.110145
-0.0781063
-0.0404692
-0.00702623
-0.0106078
0.0215066
0.0105043
-0.0218003
-0.0290264
-0.0294297
0.0201128
-0.00986293
-0.031082
0.0244421
0.0140723
-0.00119005
-0.0196631
-0.0367607
-0.0283539
-0.0542933
-0.115396
-0.077362
-0.0853557
-0.0902749
-0.10075
-0.138769
-0.0954893
-0.0562375
-0.0637191
-0.049577
-0.0171993
-0.0343057
-0.00111395
-0.0338823
-0.000630546
0.000437809
0.0177389
0.0202501
0.0102771
-0.0253445
0.0324248
-0.00646229
-0.00444371
0.00273029
-0.0415696
5.89412e-05
-0.00324315
-0.0338161
-0.0566875
-0.110508
-0.0744716
-0.124448
-0.0931212
-0.106202
-0.0552475
-0.0689363
-0.00867667
-0.0480328
0.0115438
-0.0287288
0.00587263
-0.0289041
0.0244981
0.0343112
-0.00682416
0.00660399
0.0245728
0.0204943
0.0309534
0.0260813
0.00481647
0.00957795
-0.00754054
-0.0262352
-0.0359466
-0.00802015
-0.0558174
-0.0430302
-0.0389033
-0.0264521
-0.0872621
-0.0560361
-0.0124106
-0.0518659
-0.0474881
-0.0327818
0.00860233
-0.0186177
0.0131826
0.00553952
0.0192634
0.00726015
-0.0111447
0.00436524
-0.030936
-0.0170718
-0.000362952
0.0351846
-0.00304204
-0.0342036
-0.0028211
-0.0195824
0.0109263
-0.0137673
0.000318687
-0.0421634
0.00285388
-0.0481971
0.0133574
-0.0183625
-0.0202646
0.0253974
0.0193961
0.0202308
-0.022134
0.00791046
0.0294798
-0.0277141
-0.025798
-0.00836534
0.00578871
0.0345916
0.0297087
0.0210065
-0.0107959
0.0350799
-0.034208
0.030827
-0.0295125
0.0211788
-0.0271015
-0.0206207
-0.000305631
0.0029913
-0.0235083
0.0293693
-0.0393775
-0.0240982
0.0284703
-0.00369849
0.0337102
0.0322366
0.0295332
-0.0365951
-0.0162478
0.000748793
0.0245576
0.00465516
-0.0251026
0.0300618
-0.0184909
-0.0174882
-0.0264388
0.016529
0.0229837
0.0107458
-0.0349252
-0.00349546
0.0271059
0.0290896
0.0150533
0.0116177
-0.0249434
0.025809
-0.0296192
-0.0210414
-0.0077245
0.030186
-0.0092613
-0.00163809
0.00697244
-0.0327017
-0.0068307
-0.00815171
-0.0164179
0.00234012
-0.0147851
0.0346265
0.0101354
-0.0340292
0.0120123
-0.013002
-0.0171285
-0.0119905
-0.021473
0.000868688
0.0242589
0.00229434
0.000962423
0.0101768
0.0205531
-0.035662
-0.0229728
-0.00673042
-0.013475
0.0161083
0.029155
-0.0263298
0.000639799
0.0108439
0.0103054
-0.0242023
-0.0103185
-0.0104929
0.0121998
-0.0264432
0.0347551
0.0217455
-0.00581487
-0.0230774
-0.0223777
0.00290907
-0.0274808
0.00871412
-0.000694296
0.0343737
0.0312368
-0.026186
0.0213466
-0.0213575
0.0228682
0.0302101
0.0293233
0.0295632
0.00591514
0.0354854
0.0324033
-0.0308267
0.00166653
0.0353328
0.0264912
-0.00166435
-0.0256497
0.0105627
-0.014735
-0.010033
-0.0256039
-0.00801656
0.020006
0.0348053
-0.00836316
-0.0259963
0.00578874
-0.0315616
0.0296411
0.0219835
-0.0173706
-0.00170282
0.0186283
0.00247981
-0.0341922
0.0217626
0.0111676
-0.014948
-0.00049695
-0.0126073
-0.014408
0.00449168
0.0318602
0.00248835
-0.0181007
-0.0287016
0.0227592
0.00886236
-0.00500831
-0.00154663
-0.0329742
-0.0047925
0.0323311
-0.0355879
-0.00895606
-0.0243133
-0.0213663
-0.0309849
-0.00387469
0.0287536
-0.0185789
-0.00378
0.0216521
0.026599
-0.012839
0.0247367
-3.09421e-05
0.0315862
0.00620702
-0.00264312
0.0170195
0.0149639
0.0343083
-0.008034
0.0134423
-0.0231625
-0.0232279
-0.00705959
0.0160407
-0.0195002
-0.00986847
-0.0109819
0.015685
-0.012706
-0.0362813
-0.00518957
-0.00278811
-0.0220764
-0.0376278
-0.0299039
0.0136927
0.00537645
-0.040855
-0.047718
0.0173608
0.000597519
0.0170752
-0.00677257
0.00608312
0.0103229
0.0304171
0.0156571
0.0306242
0.00191504
0.00468786
0.0293141
-0.027786
-0.00368296
-0.0226895
-0.000574457
0.0331671
-0.0168868
-0.0399352
-0.0377321
-0.0454978
-0.0445343
-0.0760576
-0.0145787
-0.0796103
-0.0553175
-0.0117394
-0.0341729
-0.00156891
-0.0465582
-0.0215913
-0.029031
-0.0127075
-0.014355
-0.0092264
0.00928539
-0.0192822
-0.0209302
0.0154129
-0.0316008
-0.00952945
-0.0271865
-0.0182229
0.0132511
0.0057014
-0.0326537
0.0104697
-0.0154299
-0.0802871
-0.0394269
-0.0409494
-0.0559499
-0.0836123
-0.0391116
-0.0646164
-0.082385
-0.0365472
-0.000590083
-0.0527115
-0.0510645
-0.0305958
-0.0289403
-0.0014731
0.0237872
-0.0150315
-0.0281348
0.000720399
-0.0338703
0.0307176
-0.00284056
0.0233461
-0.0326399
-0.019403
-0.00743934
-0.0345941
-0.0565731
-0.0917931
-0.0764508
-0.0783234
-0.0862096
-0.121183
-0.0862696
-0.0760882
-0.0801023
-0.0849421
-0.0818548
-0.0259912
-0.0065285
-0.0298465
-0.0395268
-0.0262621
-0.0301029
-0.0299921
-0.0324837
0.0190096
-0.0342911
0.0152497
0.0100948
-0.0297168
-0.0141329
0.00040678
-0.023133
-0.0236044
-0.116446
-0.119507
-0.118718
-0.129944
-0.110602
-0.0843719
-0.0880861
-0.123443
-0.0758755
-0.0832525
-0.0577316
-0.0597353
-0.0232033
0.0172521
-0.0258123
0.0018271
0.0208979
0.0275528
-0.0324968
-0.0139969
-0.00481123
-0.00168876
-0.0326594
-0.0153489
0.00887852
-0.033485
-0.0231911
-0.0861986
-0.0915433
-0.129033
-0.115421
-0.0791833
-0.0893574
-0.0663596
-0.0809695
-0.09327
-0.10715
-0.0536907
-0.0890677
-0.0192472
-0.0383829
0.0117511
-0.0292248
-0.0286507
0.0119928
-0.00370473
-0.017109
-0.0344201
-0.0353989
-0.021123
-8.27764e-05
-0.0187596
-0.0262358
-0.0354436
-0.0770579
-0.104108
-0.0940923
-0.082242
-0.0412495
-0.0608087
-0.0288495
-0.0748539
-0.0841717
-0.0690238
-0.0544504
-0.0608527
-0.0480833
-0.0501043
-0.039707
-0.0282001
0.0155411
0.0293478
0.0223405
-0.0307812
-0.0321676
0.00315527
-0.0216747
0.0335598
-0.0159123
0.00545055
0.00928211
-0.043624
-0.0285625
-0.109582
-0.0686904
-0.0480546
-0.0796846
-0.0250221
-0.0406504
-0.090891
-0.0554542
-0.0983716
-0.115856
-0.0736876
-0.0756134
-0.0343899
-0.0326195
-0.0397693
-0.0246165
0.0302867
-0.0342036
-0.034949
-0.0252159
0.00830648
-0.000317295
0.0165748
0.0119009
-0.011306
-0.0530691
-0.0433818
-0.102698
-0.0676704
-0.103683
-0.101666
-0.0494258
-0.0795348
-0.0408689
-0.0847103
-0.10584
-0.0680255
-0.0596783
-0.0817321
-0.0466341
-0.0189942
0.00753843
-0.0100369
-0.0177699
0.0214681
0.00228364
-0.0329108
-0.00659087
0.0147851
0.0263013
0.0277676
0.019266
-0.00941597
-0.00709783
-0.0570108
-0.076267
-0.056278
-0.113697
-0.0837171
-0.0636726
-0.0427308
-0.0811664
-0.0667141
-0.0742266
-0.0904063
-0.0917963
-0.0626816
-0.0282444
-0.0337963
0.00870047
-0.0175574
-0.0299681
0.0302052
0.00830014
-0.00325563
-0.0289719
-0.0325665
-0.029591
-0.0149921
-0.0232313
0.0278274
-0.021936
-0.0950891
-0.0960562
-0.0849844
-0.0946148
-0.0360551
-0.0464948
-0.0843475
-0.0842361
-0.103317
-0.144786
-0.120637
-0.11207
-0.0419058
-0.0474379
-0.0129911
-0.000278033
-0.0356536
0.0141778
0.00468955
0.0185782
-0.00362625
-0.0234131
0.00702471
-0.0260312
0.0195681
-0.00157024
-0.00763683
-0.0498209
-0.0676316
-0.10309
-0.0921426
-0.0387959
-0.0933472
-0.0408207
-0.070071
-0.0856849
-0.0997652
-0.118201
-0.12629
-0.0877095
-0.0782604
-0.0354111
-0.044499
0.0149427
-0.0381064
0.0286391
-0.0121953
0.00802528
-0.0254579
0.00598054
-0.0260203
-0.00426496
-0.00627988
-0.0382531
-0.0195451
-0.0525419
-0.0720613
-0.0542206
-0.0591217
-0.0445343
-0.0460811
-0.0569867
-0.0971009
-0.0620378
-0.119286
-0.0818039
-0.099752
-0.109523
-0.0440142
-0.0592137
0.00625893
-0.0117409
0.0243547
-0.0212465
-0.026118
-0.00533745
-0.0260334
0.0335758
0.0305392
-0.028477
0.0106413
0.00312488
-0.00408501
-0.0382145
-0.00553967
-0.0260549
-0.0437963
-0.0281627
-0.0233268
-0.0386153
-0.0485584
-0.0913166
-0.12738
-0.118264
-0.130432
-0.0482186
-0.0355792
-0.0245473
0.0174293
-0.0116485
-0.00755741
-0.00586013
-0.0128971
-0.020782
0.0295386
0.022042
-0.0205095
0.0276661
-0.0194221
-0.0111058
-0.0425242
-0.0287846
-0.0542858
-0.036291
-0.03697
-0.022268
-0.0149557
-0.0664811
-0.0826801
-0.113588
-0.0894585
-0.0742697
-0.116363
-0.0987137
-0.0725626
-0.0383219
0.0162846
0.021818
-0.0223704
0.0308417
0.026517
-0.0130303
0.0338636
-0.00461156
-0.0352521
-0.0224932
-0.0212856
-0.0195435
-0.011621
-0.0299221
-0.03124
-0.059097
-0.00493268
-0.0759245
-0.0215735
-0.0781812
-0.0478518
-0.0992759
-0.132389
-0.0896769
-0.0972831
-0.0661087
-0.0702751
-0.0337263
0.014787
-0.04635
-0.00522006
0.0305222
-0.00131597
0.0131829
0.0348707
0.0300814
-0.010979
0.00945965
0.0276792
0.0230835
0.0071237
-0.0296345
-0.0364624
-0.0619817
-0.0789719
-0.0436622
-0.0805205
-0.0466449
-0.076426
-0.101948
-0.100554
-0.0909294
-0.056991
-0.027581
-0.0552326
-0.0285282
-0.0130778
-0.0314193
0.00959222
0.00863166
-0.00209379
-0.00507588
0.0257304
-0.016516
0.00528733
0.0107828
-0.0224365
0.00116541
-0.0296643
-0.0337125
-0.0559418
-0.0368829
-0.0368942
-0.0410905
-0.0603638
-0.100254
-0.11569
-0.0621112
-0.0770532
-0.1012
-0.0445842
-0.0483236
-0.00352989
0.00193759
-0.00673433
-0.0393388
-0.0302549
-0.0166214
-0.0227832
-0.0322788
-0.034051
0.0288062
0.0173334
0.00704651
0.0337306
-0.0134051
-0.0162129
4.66873e-05
-0.001305
-0.042078
-0.0792966
-0.048055
-0.0822134
-0.125549
-0.11523
-0.0702186
-0.0504791
-0.0904956
-0.028501
-0.0340545
0.0139781
-0.0253466
0.0183107
0.00829194
0.00872068
-0.0136078
0.0311343
0.0298438
0.0224714
0.0300051
0.0175013
0.0185476
-0.0352434
0.00791721
0.00195636
-0.0182798
-0.00523394
-0.057303
-0.0593989
-0.052903
-0.0956084
-0.0767269
-0.0789983
-0.0939159
-0.0209362
-0.0134423
-0.0120327
-0.0260249
0.00848493
0.0274174
0.00292272
0.000787418
-0.0160929
0.0155286
-0.0246099
-0.0130434
-0.0161105
-0.0312368
-0.0174163
0.0279473
-0.0236333
0.0212087
0.0347854
-0.0189744
-0.0377347
-0.00669279
-0.0293501
-0.0757942
-0.0471152
-0.0615764
-0.0722136
-0.0206386
-0.0365022
-0.0475484
-0.0383243
-0.0393727
-0.0201186
0.00180338
-0.0113352
-0.00669502
-0.00994229
-0.0261287
0.0161497
0.0142271
-0.0204768
0.028392
-0.0296651
0.00328183
-0.00940515
0.0327147
-0.00053711
-0.0340307
-0.0336556
-0.0262439
0.0161622
-0.0193036
-0.0430434
-0.0353569
-0.0488911
-0.0414321
-0.000393441
0.0209052
0.00845661
-0.0339219
0.0205345
-0.03344
0.000829343
-0.0140287
0.0188005
-0.00569279
-0.0204376
-0.00565355
0.0278449
-0.0247124
-0.0339028
0.0276901
0.0333796
0.0316575
-0.019437
0.0118379
-0.0260032
-0.00895926
-0.00831319
-0.0280431
0.00728051
0.0100448
-0.04303
-0.0317873
0.0277575
-0.0129933
-0.0228916
-0.0321925
0.0208856
-0.00834622
0.00448949
-0.0159928
0.0125769
0.00454835
-0.0343846
0.0113823
-0.0254492
0.01436
0.0219897
-0.0199275
-0.0306308
0.0271582
0.0349579
0.0149137
0.031603
0.0334276
0.000445786
-0.0240497
0.00189312
-0.00114804
0.0228483
0.0100089
0.02408
-0.0109708
0.0211846
-0.0231807
-0.0100179
0.0225913
-0.0355573
0.00197607
0.0323398
-0.00581269
-0.0313698
0.01608
-0.0122674
-0.0267942
-0.0189444
0.0322962
0.00141366
0.00537453
0.0272258
0.0217106
-0.0184212
0.00885146
0.0315485
-0.00413635
0.0035783
0.0348358
-0.0269947
0.0129671
0.0144712
-0.0157792
0.0297981
0.00288945
0.00983459
-0.0210065
-0.0258873
-0.0153999
0.0332445
-0.0201586
-0.0289065
-0.000304095
0.0274634
-0.00848742
-0.0283571
-0.0214447
0.0306395
0.0188877
-0.00396414
0.00562086
0.0322286
-0.0276073
-0.00199351
-0.0139546
-0.0180288
-0.028549
0.0347833
-0.0340446
-0.0201381
0.028838
0.00422354
-0.0343281
0.00499638
0.00350912
0.0316575
0.00671298
-0.024272
-0.0103839
-0.0181531
-0.022345
0.0287364
-0.000934084
-0.03559
0.0197008
0.00888852
0.0133355
0.0224017
0.00552132
-0.0288189
0.0269316
0.0152464
0.00656387
0.00205646
-0.0148347
0.0275354
-0.0367568
-0.00592596
-0.00673347
-0.0367203
-0.0339223
-0.00253632
0.00760663
0.00587373
-0.0262601
0.000907915
-0.00770701
0.0253075
-0.0227265
0.00081419
0.015886
0.00583013
0.0180898
0.0223079
0.0320041
0.0355813
0.0205706
-0.0241349
0.00832789
0.0070126
0.0277236
0.0324163
-0.0196116
0.0245219
0.00967579
-0.0184607
0.0250542
0.0112072
-0.0136405
0.0206655
-0.0260494
0.0126615
0.0181705
0.0179285
0.0191929
-0.0187504
-0.026295
-0.00385296
-0.0134292
-0.00800348
-0.01133
0.0235134
-0.0253249
0.0275892
-0.0353085
0.0250654
-0.0134382
-0.02708
0.00429499
-0.00494283
-0.0204489
-0.0408623
-0.0315562
-0.0387873
-0.049072
-0.00982957
-0.0276706
0.0047641
-0.0399454
0.0282481
-0.0366299
0.0135008
-0.0235542
-0.00380042
-0.031651
0.0091174
-0.0320215
0.0251723
-0.0152996
0.0226109
-0.0200541
-0.0313848
0.0177704
-0.0168496
-0.0145486
-0.0327317
-0.0373597
-0.00132789
-0.0133617
-0.0606293
-0.0147952
-0.030697
-0.0789278
-0.0419231
-0.0442212
-0.0431207
-0.0404841
-0.0267951
-0.0190797
-0.00560389
-0.0354079
0.00875822
0.0110117
-0.0279844
0.0252334
0.00259952
0.000931904
0.0116066
-0.0355162
-0.0344227
-0.0372704
0.000598772
-0.0189639
-0.0441721
-0.00638534
-0.0734116
-0.0925121
-0.051132
-0.0756132
-0.0501437
-0.0386019
-0.0911058
-0.0684503
-0.0050868
-0.0175498
-0.00414849
-0.0393075
-0.0180481
-0.0283838
-0.0331341
0.00288752
-0.020043
0.0123131
-0.0199684
-0.0187374
0.00391323
0.0313068
0.0319483
-0.0149798
-0.0106856
-0.0463244
-0.0154243
-0.0142611
-0.0695127
-0.054651
-0.0530095
-0.0861887
-0.0853471
-0.0575498
-0.082916
-0.0546991
-0.0372071
-0.0380651
-0.00406816
-0.0158778
-0.0347214
0.0252477
-0.00564951
0.0100299
-0.0164266
0.0208016
0.03092
-0.0177601
0.0349376
-0.00532803
-0.00291145
0.019154
-0.0384171
-0.00791002
-0.0322328
-0.0620438
-0.0567101
-0.0649763
-0.0416485
-0.0554605
-0.0339445
-0.0969093
-0.037132
-0.063186
-0.0393152
-0.0143757
-0.0338082
0.00718457
-0.00245069
0.0257994
0.0120951
-0.0037771
0.00973215
0.0301754
0.000822673
0.00801111
0.00537768
0.019262
0.0108282
-0.0076121
-0.0360234
-0.00511262
-0.0505071
-0.0488777
-0.0837123
-0.0723989
-0.0340352
-0.0674084
-0.026451
-0.0202829
-0.070354
-0.0690913
-0.068456
-0.0644095
-0.00204331
0.0126595
0.0217405
0.0165154
0.00358764
-0.0044313
0.00630315
-0.0282257
0.0209121
-0.0033607
-0.0010292
-0.0178895
-0.0375471
0.0307722
-9.16377e-05
-0.0366779
-0.0228721
-0.0380509
-0.0258578
-0.0233261
-0.0588929
-0.065438
-0.0716447
-0.0747916
-0.084922
-0.0815092
-0.0218092
-0.0663827
-0.0333671
-0.00314288
-0.0384188
0.025161
-0.00709516
-0.029774
0.0140439
0.0255948
-0.0342107
-0.0265819
0.0288002
-0.0275517
0.018545
-0.00898649
0.0145138
-0.0326195
-0.0653377
-0.0247024
-0.0624959
-0.0650283
-0.027234
-0.0409536
-0.0370756
-0.0857165
-0.0447516
-0.0352366
-0.0677415
-0.0463611
-0.018663
-0.000861634
-0.0218737
-0.0120237
-0.00421634
-0.0258856
-0.0240683
0.00483173
0.00520442
-0.00604508
-0.0165813
-0.0212003
-0.00321746
-0.0424148
-0.0283357
-0.0385326
-0.0748776
-0.0807343
-0.0818252
-0.0665284
-0.0907078
-0.0446565
-0.088543
-0.065683
-0.0682237
-0.0348665
-0.0246786
-0.0380132
-0.0298739
-0.0311186
0.0253271
0.0289498
-0.0239343
0.00488861
0.029873
0.00452899
0.00634674
0.0354617
0.0158198
-0.035533
-0.0101375
-0.0316264
-0.0666962
-0.0169571
-0.0184765
-0.0643959
-0.0543751
-0.073369
-0.0736496
-0.102072
-0.0576195
-0.0910106
-0.090145
-0.034787
-0.0196251
-0.044244
-0.00460978
0.0159505
0.0111049
-0.0253173
0.00753553
-0.00679995
0.0236569
0.0263451
0.00771791
0.0305238
0.00564252
0.00947158
-0.00907437
0.00309344
-0.0431109
-0.0633924
-0.0467168
-0.0592889
-0.0661901
-0.0966659
-0.0484613
-0.0485835
-0.0835465
-0.0420426
-0.0750704
-0.0288108
-0.0496822
-0.0590671
-0.000808261
-0.00657615
-0.0442863
0.02589
-0.008382
-0.0127604
0.0266961
-0.0298809
0.0212681
-0.0125246
-0.0261405
0.0197507
-0.0179946
-0.0123777
-0.0641269
-0.0581638
-0.0325852
-0.0803949
-0.0620823
-0.0879673
-0.0470935
-0.0578858
-0.0626658
-0.0938505
-0.0772157
-0.0354585
-0.0497979
-0.0570216
-0.0596152
-0.030472
-0.0432586
0.0138252
0.00861016
-0.0279566
0.00598054
-0.0100504
0.0266328
0.0344935
0.0133215
-0.0361723
-0.00122535
-0.0419133
-0.0207265
-0.0244756
-0.0417624
-0.0231362
-0.0715959
-0.0564352
-0.0338932
-0.0376034
-0.0638917
-0.0833478
-0.0855871
-0.0654779
-0.0174926
-0.0134768
-0.00500625
-0.0500875
-0.0143582
-0.0301726
-0.0312568
0.0187823
0.0122107
0.0340205
-0.0144124
-0.0256039
-0.0275236
-0.0103432
-0.0175756
-0.021365
-0.0124593
-0.0144453
-0.006246
-0.0668451
-0.0420961
-0.0775847
-0.0546145
-0.0749875
-0.0209552
-0.0549377
-0.0952392
-0.0804784
-0.063377
-0.0382623
-0.0373263
-0.0333534
0.0216545
0.0290822
0.0296706
-0.00614034
-0.0279168
-0.00551404
0.0263124
-0.0270123
0.0244132
0.0304989
0.0211042
0.00201929
-0.0162088
-0.0609761
-0.0074053
-0.00693397
-0.0484488
-0.00505987
-0.0639704
-0.0175484
-0.0429377
-0.0640777
-0.0564882
-0.0256108
-0.0724566
-0.0484711
-0.0394238
0.0203846
-0.0373961
-0.0352583
-0.00419815
0.0220791
0.00417777
0.000934084
-0.0173291
-0.0320587
0.00259688
-0.0288948
0.00281856
-0.0509793
0.00310591
-0.0214628
-0.0140945
-0.0608356
-0.0212647
-0.0109969
-0.0674301
-0.0637141
-0.077079
-0.0938748
-0.0529993
-0.0195104
-0.0354681
-0.0202212
0.0156334
0.0169525
0.00979807
0.0133237
-0.0351515
0.00518924
-0.00276084
-0.00199787
0.0095621
-0.00755228
-0.00769216
-0.0375621
-0.00992641
-0.0401815
-0.0404711
-0.0251342
-0.0457162
-0.0342032
-0.0496949
-0.081353
-0.0456936
-0.0424119
-0.0634494
-0.0496817
-0.0353553
-0.0551418
-0.0504485
-0.0511038
-0.0129205
-0.0380676
0.0127741
-0.00110146
0.00925912
0.0328739
0.0111556
-0.00218752
0.0309578
0.000694125
-0.011577
-0.0161011
-0.024026
0.0128944
-0.0573407
-0.0132982
-0.0456937
-0.0864735
-0.0511204
-0.0370214
-0.104362
-0.105654
-0.0481175
-0.0417471
-0.0654817
-0.0534166
0.00806367
0.0279209
-0.0314103
0.0189127
-0.00997042
0.0133766
0.00736697
-0.0125028
0.0251745
0.00497779
0.0274002
0.0321806
-0.0352511
0.0145456
-0.00613616
-0.0175074
-0.046238
-0.0329277
-0.0409248
-0.0346246
-0.0887354
-0.0709433
-0.0531355
-0.0797213
-0.0893116
-0.0208222
-0.00818482
-0.00478364
-0.00084729
-0.00331354
0.0217429
0.0267845
0.0028418
-0.0179437
-0.0118989
-0.0345633
0.0221815
0.00480776
-0.00896699
0.016274
0.0229497
-0.0257057
0.00811719
-0.0227058
0.00905451
-0.0180739
-0.0378614
-0.0164262
-0.0377266
-0.0532881
-0.0510161
-0.0658389
-0.0572722
-0.00758223
-0.0263794
-0.00712249
0.0182987
-0.010574
-0.00574397
0.0241378
-0.0156133
0.0312563
0.0315921
0.0305458
0.0050628
0.0124723
-0.0165421
-0.0174315
-0.033223
0.0233954
-0.00160092
0.0014277
-0.035661
-0.0428928
-0.00709831
-0.000184947
-0.0695484
-0.0653471
-0.066695
-0.0531564
-0.00837502
-0.0364728
-0.0462957
-0.0316333
-0.0303688
-0.00998533
0.00697983
0.0183
0.0150654
-0.00385717
0.0181443
-0.00600016
0.00537235
0.00233358
-0.0183384
-0.0215668
-0.0308989
0.01978
0.00990359
0.0179922
0.0197145
0.0025481
0.0229733
-0.0296957
-0.00231524
-0.00601056
-0.0107594
0.0101976
0.0238204
-0.0171032
-0.00647581
0.0267436
0.0218556
0.0104741
0.0074167
-0.0256632
0.00531523
-0.03382
-0.0177127
0.0218589
-0.0339704
0.000916645
0.0187504
0.030779
0.0348314
0.0135687
0.0207929
0.0275896
0.0236777
-0.00159113
0.029117
-0.0124616
0.0209222
0.0206045
0.0193053
-0.0137366
